%YAML:1.0
---
opencv_ml_svm:
   format: 3
   svmType: C_SVC
   kernel:
      type: LINEAR
   C: 1.0000000000000000e-02
   term_criteria: { epsilon:1.1920928955078125e-07, iterations:1000 }
   var_count: 1764
   class_count: 2
   class_labels: !!opencv-matrix
      rows: 2
      cols: 1
      dt: i
      data: [ 0, 1 ]
   sv_total: 1
   support_vectors:
      - [ 9.60283633e-03, -4.43688920e-03, -7.72377709e-03,
          -5.30752027e-03, -2.62477226e-03, -2.00147531e-03,
          4.64966753e-03, 4.80095716e-03, 8.94347951e-03, 2.37252083e-04,
          -1.27873057e-03, -4.86286217e-03, 1.60933752e-03,
          6.18689740e-03, 3.46590881e-03, 6.40619546e-03, 4.92621213e-03,
          6.67425105e-03, 9.51116346e-03, 6.78559067e-04,
          -3.09763709e-03, -6.06101099e-03, -2.68700114e-03,
          -2.15596682e-03, 3.00577097e-03, 5.44868037e-03,
          1.01159913e-02, 3.79238161e-03, -9.05335415e-03,
          -1.08287279e-02, -1.01933554e-02, 3.44540970e-03,
          1.72542315e-03, 3.91971739e-03, 1.80684729e-03, 7.24334829e-03,
          5.68159949e-03, 2.44018133e-03, 1.50590460e-03, 7.84759782e-03,
          1.08283041e-02, 7.61282910e-03, 8.77016224e-03, 8.07633158e-03,
          1.02304043e-02, 2.58878642e-03, -6.74664043e-03,
          -3.21287173e-03, 2.94192811e-03, 4.19801836e-05,
          7.78185623e-03, 6.00008247e-03, 8.13709479e-03, 4.12536180e-03,
          4.20699688e-03, -7.46955257e-03, -5.91273513e-03,
          -2.18181359e-03, 6.31921506e-03, 6.63792295e-03,
          8.16858001e-03, 5.32700308e-03, 8.40242021e-03,
          -1.95139961e-03, -1.11682843e-02, -8.30252934e-03,
          -5.80956507e-03, -1.30332762e-03, -1.34554005e-03,
          2.55567837e-03, -1.20780931e-03, -7.44634541e-04,
          5.01134200e-03, -1.38839509e-03, -1.40319136e-03,
          1.07395230e-03, 4.42073494e-03, 1.01909935e-02, 5.37153287e-03,
          1.01981973e-02, 2.91008293e-03, 3.45740817e-03, 2.71662674e-03,
          -4.62255470e-04, 4.59850254e-03, 3.89787671e-03,
          7.20107602e-03, 4.43947688e-03, 1.13293226e-03, 2.85214325e-03,
          4.61334159e-04, -4.16546082e-03, -3.06392880e-03,
          -1.06811072e-04, 1.51206087e-03, 5.39066223e-03,
          1.74418057e-03, 6.21300831e-04, 6.03445340e-04,
          -2.05084169e-03, 1.85624906e-03, -9.70772118e-04,
          4.15371871e-03, 1.19917409e-03, 1.90156861e-03,
          -5.05019724e-03, -3.98140401e-03, 4.93922096e-04,
          -6.09734736e-04, 2.87646358e-03, 2.98380712e-03,
          5.80429938e-03, 4.93820570e-03, 5.08343801e-03,
          -3.99109907e-03, -4.19029454e-03, 1.93232112e-03,
          9.06868896e-04, 1.14067206e-02, 1.03938635e-02, 9.20099951e-03,
          8.69988836e-03, 1.20053142e-02, 4.94488981e-03, 9.33911302e-04,
          1.41535141e-03, -3.66649171e-03, -1.20963878e-03,
          -1.81064859e-03, 2.26989575e-03, 2.48134369e-03,
          -4.63366089e-03, -1.00383498e-02, -1.19681219e-02,
          -2.07469938e-03, -1.53730554e-03, 6.63930364e-03,
          9.18712839e-03, 8.36805440e-03, 1.15391314e-02, 1.07220849e-02,
          -6.55882584e-04, -1.17643178e-03, -6.70166221e-04,
          -5.18685998e-03, 9.60363075e-03, 1.23988027e-02,
          1.54021094e-02, 1.19006224e-02, 1.07865911e-02, 7.27474457e-03,
          2.40155985e-03, -7.65259471e-03, -1.99614186e-02,
          1.16534380e-03, 9.20813810e-03, 1.13994209e-02, 1.18388077e-02,
          1.04026275e-03, -2.00135843e-03, -6.00819616e-03,
          -2.20191684e-02, -9.51267034e-03, 3.82754765e-03,
          1.20678935e-02, 1.59128718e-02, 1.25862863e-02, 1.29723009e-02,
          2.99728359e-03, 2.11339537e-03, -9.84588079e-03,
          -2.09605899e-02, -7.32219499e-03, 6.15905877e-03,
          9.27989744e-03, 7.86814187e-03, 1.12451718e-03,
          -6.36546826e-03, -9.96391941e-03, -2.22117621e-02,
          -1.73045583e-02, -1.30244822e-03, 6.45373529e-03,
          1.05941324e-02, 2.90008616e-02, -2.44115340e-03,
          -8.28874018e-03, -1.35284793e-02, -1.86173022e-02,
          -1.66635402e-02, -8.12175218e-03, -5.71849523e-04,
          1.54328970e-02, 3.69112156e-02, 1.17751933e-03,
          -1.42627042e-02, -1.79400798e-02, -1.92909297e-02,
          -2.42441520e-02, -8.62874649e-03, -2.77537591e-04,
          1.90058665e-03, 2.54246742e-02, -6.78931782e-03,
          -1.22363735e-02, -1.58161744e-02, -2.40727272e-02,
          -2.30851416e-02, -1.39173428e-02, -1.18790315e-02,
          4.31103352e-03, 3.24576125e-02, -3.25801037e-03,
          -2.06983350e-02, -2.37649493e-02, -2.67595258e-02,
          -1.57213230e-02, -1.19112246e-02, -8.95352568e-03,
          1.23790018e-02, 3.54257561e-02, 9.28267650e-03,
          -1.34294936e-02, -1.63667854e-02, -1.85662620e-02,
          -1.43355289e-02, -1.06928963e-02, -9.80555825e-03,
          -9.53830220e-03, 1.05612827e-02, -7.70265562e-03,
          -9.56356898e-03, -1.03284847e-02, -1.54432748e-02,
          -2.12049708e-02, -1.66519023e-02, -1.56267099e-02,
          3.68600618e-03, 3.40143032e-02, 9.84771550e-03,
          -1.95414666e-02, -2.28433590e-02, -2.31730361e-02,
          -1.25315879e-02, -1.07137188e-02, -1.22702392e-02,
          -1.45406006e-02, 1.92406569e-02, -5.84736280e-03,
          -1.00051062e-02, -8.88521224e-03, -1.25288172e-02,
          1.17870364e-02, 2.63950467e-04, -7.23700796e-04,
          -4.70054336e-03, 6.31330127e-04, -9.81362187e-04,
          5.05464338e-03, 7.55522726e-03, 1.42114991e-02, 6.51369477e-03,
          -7.26753706e-03, -9.24433023e-03, -5.90910763e-03,
          3.72553268e-03, 3.07690329e-03, 9.45969857e-03, 6.93272613e-03,
          9.12384130e-03, 1.03469444e-02, 2.43665976e-03,
          -3.73339234e-03, -7.42444443e-03, -5.81406755e-03,
          -7.90346228e-03, 9.52149043e-04, 5.98298479e-03,
          8.70348234e-03, 6.65683579e-03, -4.09025699e-03,
          -6.27786899e-03, -9.28713195e-03, -7.90369045e-03,
          -2.35982334e-05, 7.77862268e-03, 5.51972026e-03,
          5.63811418e-03, 4.23313444e-03, -4.17634845e-03,
          -3.62985767e-03, -2.63929670e-03, 3.88703193e-03,
          3.73004633e-03, 1.08005824e-02, 4.61216643e-03, 4.54833964e-03,
          1.60135992e-03, -5.38582681e-03, -6.24932768e-03,
          -3.73459188e-03, -2.05806969e-03, -6.77923206e-04,
          4.96562151e-03, 7.32836663e-04, 1.29601336e-03, 6.35445630e-03,
          -2.77973269e-03, -2.18601362e-03, -4.44488786e-03,
          -5.08292578e-03, 4.59663477e-03, 8.90912209e-03,
          8.02247413e-03, 7.44572841e-03, 3.29372287e-03,
          -5.55057172e-03, -6.98493049e-03, -4.45664534e-03,
          -2.64152093e-03, 4.19628806e-03, 8.12072400e-03,
          5.81324054e-03, 3.36048868e-03, 1.09562441e-03,
          -1.86616241e-03, -1.41699624e-03, 2.28606141e-03,
          5.43565582e-03, 7.72840716e-03, 5.16971853e-03, 4.51881764e-03,
          2.54628458e-03, 2.80822464e-03, 1.67535432e-03, 3.05548077e-04,
          7.31303496e-03, 4.02688142e-03, 1.86574121e-03,
          -5.07872086e-03, -2.91564560e-04, 1.81544560e-03,
          -2.70597008e-03, -6.45316392e-03, -4.85557923e-03,
          2.42590765e-03, 3.12410854e-03, 7.64422957e-03, 1.10256067e-02,
          8.93438421e-03, 8.68951611e-04, -2.73250742e-03,
          -2.60050362e-03, -7.18216121e-04, 5.76457614e-03,
          1.58633501e-03, 3.06837214e-03, -1.74470851e-03,
          3.69830406e-04, 8.47510364e-06, 2.07095058e-03, 1.30291388e-03,
          8.94854136e-04, 7.40954187e-03, 5.37471520e-03,
          -1.39881670e-03, -7.52627896e-03, -2.88801338e-03,
          -3.49123293e-04, -2.62067281e-03, 4.26934520e-03,
          1.02044996e-02, 1.52035346e-02, 1.51231475e-02, 8.21570121e-03,
          -1.43473526e-03, 6.58818171e-04, -3.78271169e-03,
          -9.00477986e-04, -2.13521962e-05, 2.91752070e-03,
          3.07512516e-03, 1.50072994e-03, -2.11844896e-03,
          -3.87616735e-03, -2.95615965e-03, -1.79737073e-03,
          -4.09119762e-03, 1.98687660e-03, 9.80429817e-03,
          1.05592022e-02, 5.90354484e-03, 1.12056022e-03,
          -1.10056228e-03, -3.05839954e-03, -5.15227811e-03,
          -1.31707815e-02, 2.69470201e-03, 1.57560147e-02,
          2.04557758e-02, 1.72999315e-02, 1.42948972e-02, 4.27628926e-04,
          8.52835132e-04, -1.09638628e-02, -2.07793731e-02,
          -5.25604421e-03, 8.68832413e-03, 1.26204723e-02,
          1.10850744e-02, -7.30470289e-04, -6.42153900e-03,
          -8.28792341e-03, -1.81761682e-02, -1.01927295e-02,
          1.95496180e-03, 1.41932508e-02, 1.64034944e-02, 9.09855403e-03,
          3.09509737e-03, -4.04005311e-03, -6.90710172e-03,
          -1.14236502e-02, -1.40172048e-02, -2.45925668e-03,
          9.95844323e-03, 1.26095694e-02, 5.07028215e-03,
          -7.61642121e-03, -8.14054254e-03, -8.72753654e-03,
          -1.70796011e-02, -1.81113854e-02, -5.61645534e-03,
          -9.94268106e-04, -3.15528596e-03, 2.49340031e-02,
          -6.74485462e-03, -1.12175168e-02, -1.20898718e-02,
          -2.11307090e-02, -1.94207057e-02, -1.01057189e-02,
          -8.44193716e-03, 2.33411137e-03, 3.66648920e-02,
          -2.85995216e-03, -1.82698183e-02, -1.78285576e-02,
          -2.19711196e-02, -1.75906289e-02, -5.54994121e-03,
          -1.78207993e-03, -4.65683173e-03, 2.06978135e-02,
          -1.06825391e-02, -1.01957694e-02, -9.95681435e-03,
          -1.70792900e-02, -1.96315646e-02, -1.13111520e-02,
          -7.92243145e-03, 3.12747783e-03, 3.31610441e-02,
          -4.52867430e-03, -1.96622275e-02, -1.65644307e-02,
          -2.02870946e-02, -1.67387202e-02, -1.17918449e-02,
          -1.28125865e-02, 2.99224950e-04, 3.59316580e-02,
          5.63889602e-03, -1.78625472e-02, -1.79617405e-02,
          -2.03137975e-02, -1.03585450e-02, -8.71772319e-03,
          -9.98414308e-03, -1.03832548e-02, 1.64558403e-02,
          -6.02185633e-03, -8.61275848e-03, -8.02811049e-03,
          -9.78426263e-03, -1.81408711e-02, -1.45058315e-02,
          -1.10762799e-02, -9.57149081e-04, 3.43016572e-02,
          7.98167475e-03, -1.80092342e-02, -1.46171311e-02,
          -1.99901350e-02, -1.35896374e-02, -1.18518844e-02,
          -9.76396631e-03, -9.63791180e-03, 2.11900957e-02,
          -4.39775735e-03, -8.96233413e-03, -9.88145545e-03,
          -1.27843739e-02, 1.27591453e-02, 1.04227448e-02,
          4.20002174e-03, -5.88258321e-04, -6.81862421e-03,
          -6.79238280e-03, -4.63087868e-04, 7.50789326e-03,
          1.25812273e-02, 1.12592112e-02, 4.61325934e-03, 3.04487720e-03,
          -3.94316576e-03, -1.23195024e-02, -2.84093386e-03,
          6.25247182e-03, 5.43747237e-03, 1.02918930e-02, 9.58279986e-03,
          9.66809038e-03, 2.42801732e-03, -5.71694132e-03,
          -1.44326435e-02, -4.82825516e-03, 5.73637546e-04,
          4.78532072e-03, 1.19293686e-02, 6.17905986e-03, 1.70335243e-03,
          1.31707778e-03, -5.51230321e-03, -1.22421170e-02,
          -5.53037506e-03, 8.22608825e-04, -4.28033480e-03,
          5.40440576e-03, 7.19725294e-03, -3.47478082e-03,
          -5.07551711e-04, -6.24629855e-03, -1.30377542e-02,
          7.86571545e-05, 8.35769996e-03, 5.35895117e-03, 8.17760732e-03,
          5.21023059e-03, -5.22462232e-03, -1.54698372e-03,
          -2.30643828e-03, -5.65142650e-03, 4.62794909e-03,
          1.03675658e-02, 7.67618651e-03, 9.26996395e-03, 2.48036790e-03,
          -1.61359855e-03, -1.50762382e-03, -7.12401560e-03,
          -1.46715213e-02, -3.67085123e-03, 1.93392986e-03,
          -3.69374437e-04, 4.31690970e-03, 4.57534939e-03,
          4.84978227e-04, 4.52014065e-04, -2.71879428e-04,
          -5.97499171e-03, 2.16639135e-03, 4.47118841e-03,
          5.89767378e-03, 7.07830349e-03, 5.55992185e-04,
          -5.15907351e-03, -9.07972804e-04, 3.71618429e-03,
          1.77817210e-03, 6.30683918e-03, 8.92895553e-03, 6.46948442e-03,
          2.56530032e-03, -4.43880074e-03, -3.36332340e-03,
          6.74458221e-04, 8.97823600e-04, -4.67932690e-03,
          -1.74155599e-03, -3.83471255e-04, -1.32519589e-03,
          -3.52280797e-03, 3.03089828e-03, -1.92059122e-03,
          -7.28509855e-04, 6.30915165e-05, 1.67157990e-03,
          5.00267651e-03, 9.19247791e-03, 7.27949291e-03, 4.66816267e-03,
          8.09594290e-04, -1.49713445e-03, -2.84508523e-03,
          -6.85840752e-03, -6.41243486e-03, 2.24732375e-03,
          5.23413112e-03, 2.43333192e-03, 4.88470262e-03, 2.44923891e-03,
          7.01867102e-04, 1.42170396e-03, 1.18823169e-04,
          -6.02828199e-03, -3.29873851e-03, -2.19330331e-03,
          -2.60490645e-03, 3.16975056e-04, 1.56486669e-04,
          4.27230913e-03, 9.05087218e-03, 9.29452386e-03, 2.99111567e-03,
          6.59970043e-04, -1.12200575e-03, -4.10612533e-03,
          -2.88420310e-03, 3.10815615e-03, 4.19679750e-03,
          3.90881347e-03, 1.37317553e-03, -3.53650446e-03,
          2.72494461e-03, 1.76581508e-03, 1.87565479e-03, 1.72510475e-03,
          9.18072255e-05, 9.99865960e-03, 1.30162537e-02, 1.11826425e-02,
          4.64890432e-03, 5.38113434e-03, -4.95955162e-03,
          -6.12548739e-03, -5.49309189e-03, -9.85536724e-04,
          8.51178542e-03, 1.83579586e-02, 1.73424557e-02, 7.24438485e-03,
          3.10850819e-03, -3.06168478e-03, -5.13271056e-03,
          -5.65318111e-03, -5.22498600e-03, 4.26787604e-03,
          1.23503720e-02, 9.81002394e-03, 4.23625577e-03,
          -9.77966096e-03, -8.01292062e-03, -5.89715363e-03,
          -9.28678270e-03, 2.07530131e-04, 1.20370816e-02,
          1.68469790e-02, 1.39339697e-02, 6.86306180e-03, 1.16848026e-03,
          -7.26838224e-03, -6.36096951e-03, -6.52506342e-03,
          -7.21603027e-03, 3.89392255e-03, 4.00143536e-03,
          -3.55999242e-03, -8.90758540e-03, -1.18119977e-02,
          -1.19780572e-02, -1.24595175e-02, -9.95932054e-03,
          -8.58322345e-03, -4.02514962e-03, 1.19444635e-03,
          -1.02964202e-02, 1.02149285e-02, -1.06161153e-02,
          -6.58424757e-03, -5.91324875e-03, -9.15682781e-03,
          -1.16911102e-02, -7.56613864e-03, -7.84530863e-03,
          -1.91499025e-03, 3.58185396e-02, 8.94135737e-04,
          -1.46291656e-02, -1.24064889e-02, -1.36721535e-02,
          -8.73779226e-03, -5.03280107e-03, -5.45797264e-03,
          -1.86931454e-02, 6.11077202e-03, -1.08137438e-02,
          -9.16016009e-03, -9.70209576e-03, -1.31316595e-02,
          -1.34057961e-02, -1.25436047e-02, -1.38181010e-02,
          -1.05852364e-02, 3.32373306e-02, 1.13941384e-02,
          -1.22089377e-02, -1.35607040e-02, -1.75982378e-02,
          -1.52278962e-02, -1.13459677e-02, -1.05657205e-02,
          -7.38709141e-03, 3.35147157e-02, 5.63359633e-03,
          -1.40896440e-02, -1.14786848e-02, -1.72264203e-02,
          -1.53394090e-02, -1.16477516e-02, -9.92746651e-03,
          -1.21903140e-02, 1.99215151e-02, -6.55477343e-04,
          -6.68770866e-03, -7.25684781e-03, -1.72407534e-02,
          -2.22879294e-02, -1.35691492e-02, -1.34800402e-02,
          -8.68137274e-03, 3.07096541e-02, 1.74638759e-02,
          -1.23113459e-02, -1.35795632e-02, -2.38031019e-02,
          -2.48553716e-02, -1.38234459e-02, -1.42136039e-02,
          -1.45301418e-02, 2.47230679e-02, 1.11056529e-02,
          -6.67029154e-03, -9.25103761e-03, -2.52884310e-02,
          1.44239916e-02, 7.03412667e-03, -1.09130016e-03,
          -1.22483280e-02, -1.77451931e-02, -6.25690864e-03,
          2.92700622e-03, 1.27527211e-02, 2.05211267e-02, 7.91463349e-03,
          4.48534451e-03, 1.35822536e-03, -9.48985852e-03,
          -1.87627170e-02, -6.03451859e-03, -8.70215474e-04,
          -4.30633227e-04, 1.22718047e-02, 1.69683192e-02,
          3.09850974e-03, -5.95263951e-03, -8.30383226e-03,
          -1.63075849e-02, -7.26006227e-03, 6.07010955e-03,
          1.60822924e-02, 2.12596450e-02, 1.41813532e-02, 1.37212612e-02,
          3.30833462e-03, -3.91944358e-03, -1.66267008e-02,
          -1.07919564e-02, 3.83791490e-03, 1.04525695e-02,
          1.59317721e-02, 3.60483420e-03, 5.05166501e-03, 2.70568719e-03,
          -5.62250894e-03, -1.75033398e-02, -6.83047110e-03,
          -6.31784787e-03, -1.78047782e-03, 4.51284414e-03,
          7.50748022e-03, 7.31047429e-03, 6.47960347e-04,
          -7.12665264e-04, -1.07071949e-02, -7.72569387e-04,
          2.23713834e-03, 4.59624734e-03, 6.67066779e-03, 1.07729137e-02,
          1.34311253e-02, 6.76484918e-03, -3.26396269e-03,
          -1.50393778e-02, -8.84778984e-03, -7.21266214e-03,
          2.53153685e-03, 9.39682126e-03, 1.06502622e-02, 1.60609633e-02,
          1.20574739e-02, 3.08062509e-03, -6.92027807e-03,
          -5.68754738e-03, -6.57944067e-04, 6.07705023e-03,
          8.13968666e-03, 1.30737945e-03, -2.83456384e-03,
          -5.25659369e-03, -5.95753174e-03, -9.62196942e-03,
          -5.12626348e-03, 4.17594332e-03, 1.15689496e-03,
          2.55740923e-03, 1.20719057e-03, -2.65997089e-03,
          -5.50692854e-03, -1.02382191e-02, -7.54351122e-03,
          -1.39511121e-03, 7.79365981e-03, 1.13993336e-03,
          3.17706191e-03, 6.99609844e-03, 1.09684523e-02, 8.42727721e-03,
          -1.52952014e-03, -5.41816419e-03, -4.78523457e-03,
          2.72003259e-03, 1.40284933e-03, 2.56494037e-03, 8.01076367e-03,
          8.65080301e-03, 7.15264818e-03, -1.33444346e-03,
          -1.94444577e-03, 2.55285320e-03, 1.05040353e-02,
          -3.10124247e-04, -3.03267938e-04, -1.19218288e-03,
          1.29326072e-03, 3.88174807e-03, 2.74838065e-03, 1.57287548e-04,
          6.89957896e-03, 6.80333562e-03, 2.16048444e-03, 1.54321300e-04,
          -7.73406448e-03, 2.00436171e-03, 5.23599004e-03,
          9.59916972e-03, 1.04280869e-02, 6.86069811e-03,
          -3.01595917e-03, -7.44145084e-03, -8.60182755e-03,
          4.25079558e-03, 6.21162530e-04, 1.66276970e-03, 5.84355183e-03,
          3.13211489e-03, 1.01329526e-02, 1.10208858e-02, 2.05346034e-03,
          -2.41457787e-03, -9.66877304e-03, -2.47955904e-03,
          2.27238075e-03, 5.02862502e-03, 7.44074443e-03, 1.04205990e-02,
          4.98747500e-03, 3.91386275e-05, -6.67508412e-03,
          1.22763764e-03, 1.18619110e-02, 1.74358804e-02, 1.69370379e-02,
          1.29384585e-02, 1.19165396e-02, 3.49567551e-03, 1.99339050e-03,
          -2.10157712e-03, -9.12500639e-03, -4.74203407e-04,
          2.30827881e-03, -8.10353458e-03, -7.28898821e-03,
          -6.36088150e-03, -6.50730729e-03, -7.62108760e-03,
          -9.92942508e-03, -4.68614465e-03, 7.82708265e-03,
          1.13176703e-02, 1.04228873e-02, 9.70855262e-03, 1.30976904e-02,
          1.19970003e-02, 9.88572743e-03, -6.55925192e-04,
          -1.03237424e-02, -7.87374377e-03, -1.00038936e-02,
          -1.61645021e-02, -8.94375425e-03, -6.94478722e-03,
          -1.25987513e-03, 1.74125307e-04, -9.95008368e-03,
          -1.12047084e-02, -7.32086087e-03, -7.71353487e-03,
          -1.89022273e-02, 5.06225042e-03, -8.11947696e-03,
          -1.14419051e-02, -1.15807392e-02, -1.38704013e-02,
          -1.44040314e-02, -1.25560444e-02, -1.21285133e-02,
          -1.05086938e-02, 4.13865447e-02, 1.92052759e-02,
          -1.12326546e-02, -1.53065547e-02, -1.83028132e-02,
          -1.30841974e-02, -1.00693507e-02, -1.21132610e-02,
          -2.08325088e-02, 3.30663356e-03, -1.22455545e-02,
          -1.30178565e-02, -1.08513543e-02, -1.41240833e-02,
          -1.61955692e-02, -1.32265408e-02, -1.31754177e-02,
          -1.12979515e-02, 4.22147810e-02, 1.88344494e-02,
          -1.51501130e-02, -1.64982826e-02, -1.96057949e-02,
          -2.05963422e-02, -1.34605570e-02, -1.30899707e-02,
          -1.43613871e-02, 2.50071231e-02, 1.75113957e-02,
          -1.04660997e-02, -1.32412910e-02, -2.36134194e-02,
          -2.24001836e-02, -1.29407123e-02, -1.48274135e-02,
          -1.94043070e-02, 1.95205864e-02, 1.31566348e-02,
          -8.91081151e-03, -1.01606082e-02, -2.33787671e-02,
          -1.87147055e-02, -1.18871108e-02, -1.25143966e-02,
          -1.59012284e-02, 2.59257648e-02, 2.75222883e-02,
          -1.01753138e-02, -1.37292277e-02, -2.02178005e-02,
          -2.32188683e-02, -1.07567059e-02, -1.28494091e-02,
          -2.04427354e-02, 1.85007118e-02, 2.42937710e-02,
          -1.15837809e-02, -1.33844130e-02, -2.60861684e-02,
          6.05214527e-03, 1.89989398e-03, -2.83916970e-03,
          -5.08053508e-03, -1.44294742e-02, -8.37931782e-03,
          -2.57987715e-03, 2.50256876e-03, 7.64287682e-03,
          1.14991628e-02, 1.06842248e-02, 7.05495896e-03,
          -2.86275614e-03, -1.33972792e-02, -9.51707456e-03,
          -4.39190911e-03, 2.00442784e-03, 1.27331801e-02,
          8.93011596e-03, 1.26342447e-02, 1.05110146e-02, 1.04538840e-03,
          -7.87931029e-03, -4.10177186e-03, -1.96782942e-03,
          2.49418430e-03, 7.66134914e-03, 8.96719843e-03, 1.41860014e-02,
          1.18141938e-02, 6.04433939e-03, -2.67017633e-03,
          -3.42199486e-03, -3.63154244e-03, -3.03881447e-04,
          9.07103717e-03, 9.29497182e-03, 9.71767958e-03, 7.71921128e-03,
          -2.20777802e-04, -9.19521786e-03, -6.91133318e-03,
          -8.98786075e-03, -3.18645523e-03, 8.93273205e-03,
          7.54699484e-03, 1.07750781e-02, 8.59641191e-03, 4.50883899e-03,
          -5.69933048e-03, -8.39983951e-03, -7.49895163e-03,
          -4.72144876e-03, 4.22710553e-03, 1.00896973e-02,
          1.21013382e-02, 1.28816664e-02, 7.42988242e-03, 9.31179908e-04,
          -1.92818721e-03, -1.43792713e-03, -1.10398815e-03,
          9.35901701e-03, 4.75101871e-03, 1.22292265e-02, 9.18407459e-03,
          7.50247482e-03, -4.80864343e-04, -9.22826293e-04,
          -7.38203013e-03, -6.73571741e-03, 1.67973712e-03,
          4.92222048e-03, 1.24249756e-02, 1.16238100e-02, 5.71969710e-03,
          3.99758748e-04, -6.65983243e-04, -3.12226402e-05,
          -2.69042794e-03, 1.67482172e-03, 5.40777715e-03,
          7.34616863e-03, 3.16589954e-03, 5.01654251e-03,
          -1.71179371e-03, 5.69558190e-03, 2.41788826e-03,
          -2.61670165e-03, -2.66754604e-03, 8.67174167e-05,
          8.86977278e-03, 5.26231434e-03, 6.82123052e-03, 4.37315227e-03,
          5.01992879e-03, -6.06433023e-03, -3.60644679e-03,
          -2.05285475e-03, -3.16787767e-03, 1.71622948e-03,
          1.44155463e-03, 7.36663351e-03, 3.63158504e-03, 5.65438066e-03,
          -1.33989961e-03, 6.39194215e-04, -5.23006544e-03,
          2.72357673e-03, -2.09341547e-03, 6.66394888e-04,
          7.35902740e-03, 1.79558992e-03, 1.08307377e-02, 2.71929172e-03,
          5.67630108e-04, -1.84213324e-03, -8.37133359e-03,
          -5.54442219e-03, -1.86710560e-03, 5.27795870e-03,
          7.11905584e-03, 1.25945248e-02, 5.10298135e-03, 6.70772395e-04,
          -5.18969819e-03, -4.04219097e-03, 9.27230169e-04,
          3.36211431e-03, 1.07143437e-02, 5.06987562e-03, 1.11883320e-02,
          6.35432918e-03, 3.45073082e-03, -3.34968860e-03,
          -5.22939255e-03, -1.29482662e-03, -1.01565220e-03,
          1.16872340e-02, 1.05717592e-02, 1.28743211e-02, 6.98098494e-03,
          1.00912654e-03, -5.64166019e-03, -5.70046529e-03,
          -1.70767438e-04, -2.40325951e-03, 3.44233843e-03,
          4.86005237e-03, 1.00450292e-02, 8.21667723e-03, 5.48756775e-03,
          -2.55183270e-03, -1.17150620e-02, -1.01244263e-02,
          -1.04423314e-02, -1.65135693e-02, -1.28497556e-02,
          -7.64732854e-03, 1.78611046e-03, -8.45292467e-04,
          -9.29335784e-03, -3.62231000e-03, 1.44159258e-03,
          5.63479541e-03, 1.02272425e-02, 1.16070732e-02, 1.76342931e-02,
          1.64638422e-02, 1.23702521e-02, -2.75968760e-03,
          -6.29307562e-03, -5.70118055e-03, -2.83659901e-03,
          -9.16319247e-03, 2.22125906e-03, 6.51384378e-03,
          1.73075628e-02, 1.22426813e-02, -1.03929965e-03,
          -1.48572149e-02, -1.11480094e-02, -1.20635955e-02,
          -1.93690695e-02, -2.41268403e-03, -1.04995845e-02,
          -5.97626902e-03, -7.52433343e-03, -1.32917352e-02,
          -2.04684287e-02, -1.24751925e-02, -1.37147419e-02,
          -1.62940118e-02, 3.68668139e-02, 1.59360990e-02,
          -1.40322736e-02, -1.43615641e-02, -2.00933665e-02,
          -1.40834916e-02, -1.01939989e-02, -9.52075236e-03,
          -1.81026347e-02, 1.66648522e-03, 3.06962611e-04,
          9.07875970e-03, 1.74667849e-03, -1.09996302e-02,
          -2.32110061e-02, -1.27134034e-02, -1.33867832e-02,
          -1.45806968e-02, 3.86229679e-02, 3.41985300e-02,
          -5.67035610e-03, -9.65119991e-03, -2.16034167e-02,
          -2.14655884e-02, -1.14325918e-02, -1.55391218e-02,
          -1.66581403e-02, 2.56341193e-02, 2.24792827e-02,
          -1.06217237e-02, -1.33950524e-02, -2.02752035e-02,
          -2.05005519e-02, -1.07019143e-02, -1.16759855e-02,
          -1.74074974e-02, 9.99389868e-03, 2.37141866e-02,
          -1.08649256e-02, -1.34172756e-02, -2.14143135e-02,
          -2.51638368e-02, -1.30564747e-02, -1.65763795e-02,
          -1.31246010e-02, 2.41029095e-02, 2.62727458e-02,
          -1.04534347e-02, -1.48963910e-02, -2.44358107e-02,
          -2.13564672e-02, -1.14586316e-02, -1.13903489e-02,
          -1.48385912e-02, 1.74540281e-02, 2.45820358e-02,
          -1.01572964e-02, -1.31480712e-02, -2.11751089e-02,
          8.92081484e-03, 1.16557032e-02, 8.97667278e-03, 2.71504046e-04,
          -3.85177764e-03, -4.40719351e-03, -2.70418124e-03,
          1.59785093e-03, 5.39347390e-03, 5.04036853e-03, 8.58797226e-03,
          5.70462691e-03, 1.48244237e-03, -1.49958208e-03,
          -5.64216916e-03, -1.01569248e-03, 1.83570664e-04,
          4.88976343e-03, 6.65139267e-03, 7.25993793e-03, 8.27257149e-03,
          -2.18171952e-03, -6.04239246e-03, -3.74074373e-03,
          -2.50028982e-03, -6.13704615e-04, 6.41714549e-03,
          2.67283572e-03, 3.94083839e-03, -1.75782980e-03,
          -4.98765334e-03, -4.81589884e-03, -8.14160798e-03,
          -3.05131008e-03, 1.13902439e-03, 1.51007925e-03,
          2.99019739e-03, 8.49822443e-03, 1.02691865e-02, 6.27647201e-03,
          2.52244156e-03, -1.85383204e-03, 2.58889544e-04,
          1.30085310e-03, 1.82755408e-03, 3.89192610e-05, 1.01600764e-02,
          7.70887174e-03, 4.70714644e-03, 1.52093498e-03, 2.52369931e-03,
          -1.00038969e-03, 2.62174959e-04, -1.35728274e-03,
          -1.06620733e-04, 5.45509113e-03, 7.50428066e-04,
          2.27537891e-03, 2.00652075e-03, -1.00138551e-03,
          -1.27999345e-04, 8.96094542e-04, -1.21502939e-03,
          -3.31119425e-03, 8.99549201e-03, 8.16564728e-03,
          5.43376710e-03, 5.89826517e-03, 4.04484617e-03, 4.67491243e-03,
          1.29339390e-03, -4.00758069e-03, -7.54742976e-03,
          7.31727388e-03, 6.28531724e-03, 4.79356525e-03, 3.93617386e-03,
          6.17375830e-03, -2.74409354e-03, 1.54677639e-03,
          -6.12039259e-03, -9.33493767e-03, 4.72634425e-03,
          6.02245005e-03, 6.41030399e-03, 3.89666739e-03, 6.64820103e-03,
          -4.55447531e-04, 2.88415328e-03, -5.23335300e-03,
          -3.36048915e-03, 8.83343536e-03, 8.80442932e-03,
          9.06121824e-03, 8.15298408e-03, 6.01445138e-03, 2.77476804e-03,
          2.02163961e-03, -3.98974307e-03, -2.07331753e-03,
          6.41849171e-03, 5.78422099e-03, 8.89723189e-03, 7.97066558e-03,
          1.17882304e-02, 5.46658225e-03, 4.06031869e-03,
          -3.36372969e-03, -5.85924555e-03, 3.75121646e-03,
          3.50784510e-03, 7.91458227e-03, 2.50911899e-03, 5.15035633e-03,
          4.20414284e-03, 2.67644972e-03, -4.85904329e-03,
          -6.83967024e-03, -2.60144169e-03, 1.56254997e-03,
          8.47463496e-03, 8.89751129e-03, 9.34900995e-03, 6.31556474e-03,
          7.74961547e-04, -9.51643474e-03, -5.33291046e-03,
          2.34733499e-03, 5.02126850e-03, 7.69492611e-03, 4.88399202e-03,
          1.24369022e-02, 7.85401929e-03, 4.88171820e-03,
          -4.41916659e-03, -6.68862090e-03, -1.12661824e-03,
          6.35584071e-03, 8.28678254e-03, 7.84701761e-03, 8.69499333e-03,
          7.22029386e-03, 3.54462070e-03, -5.19271893e-03,
          -8.30958039e-03, -2.52153142e-03, 2.71538948e-03,
          7.84207508e-03, 1.12844845e-02, 1.34853842e-02, 1.08825406e-02,
          4.82653407e-03, -1.10336374e-02, -1.20736491e-02,
          -7.69793242e-03, -3.87339620e-03, -6.01742137e-03,
          3.61499120e-03, 3.28029576e-03, 1.15764644e-02, 3.82666453e-03,
          -9.76520684e-03, -6.03312766e-03, -4.24305414e-04,
          4.72560432e-03, 8.85410421e-03, 1.03860768e-02, 1.30772237e-02,
          1.20761106e-02, 5.67865092e-03, -5.32383006e-03,
          -8.65947362e-03, -7.58298719e-03, -3.28506180e-03,
          -1.24305882e-03, 6.39830437e-03, 5.74686285e-03,
          7.35094864e-03, 1.28188601e-03, -7.67566590e-03,
          -1.88964941e-02, -1.14405258e-02, -1.08870259e-02,
          -1.51355248e-02, 3.82472109e-03, -1.89867365e-04,
          7.42510194e-03, -2.86548538e-03, -1.56325400e-02,
          -2.49312874e-02, -1.32905729e-02, -1.39081292e-02,
          -1.31939789e-02, 2.97496747e-02, 2.88743768e-02,
          6.88093307e-04, -6.36720052e-03, -2.16581970e-02,
          -1.91777367e-02, -1.16365580e-02, -1.04664592e-02,
          -1.11337770e-02, 8.14936124e-03, 3.04252421e-03,
          1.25079099e-02, -2.32241605e-03, -1.55104361e-02,
          -2.29943078e-02, -1.26973288e-02, -1.33363390e-02,
          -1.04074664e-02, 3.09974346e-02, 3.26875933e-02,
          6.66507054e-03, -4.79572127e-03, -2.20920853e-02,
          -2.38240752e-02, -1.36046084e-02, -1.62376482e-02,
          -1.60303749e-02, 2.79139243e-02, 2.72008628e-02,
          -8.82145483e-03, -1.30189573e-02, -2.23196540e-02,
          -2.06496567e-02, -1.20780142e-02, -1.52006699e-02,
          -1.74066070e-02, 1.82940513e-02, 1.67012215e-02,
          -9.08467360e-03, -1.33508407e-02, -2.04100292e-02,
          -2.82935295e-02, -1.51347211e-02, -1.53831188e-02,
          -1.17456783e-02, 2.70928796e-02, 2.89559793e-02,
          -8.14237446e-03, -1.15866307e-02, -2.55418606e-02,
          -2.42907312e-02, -1.47841126e-02, -1.45062050e-02,
          -1.31664192e-02, 2.03986503e-02, 2.31203474e-02,
          -1.10838832e-02, -1.41946245e-02, -2.29906738e-02,
          9.75912553e-04, 2.94245919e-03, 8.23256280e-03,
          -2.04990129e-03, -6.63333246e-03, -6.91482797e-03,
          -1.34718325e-03, 2.10762769e-03, 2.20241770e-03,
          5.51782316e-03, 4.66226833e-03, 2.25993362e-03,
          -4.78174118e-03, -1.72958407e-03, -4.17038985e-03,
          -2.38747496e-04, 1.07867026e-03, 2.85514793e-03,
          2.10926417e-04, 3.81850498e-03, 7.66511075e-03,
          -1.03811768e-03, -2.44324305e-03, -8.42163432e-03,
          8.91819363e-04, 2.15470465e-03, -4.27380495e-04,
          8.15681834e-03, 3.52537935e-03, 5.25246840e-03,
          -3.71798058e-03, 2.33757310e-04, -9.98470699e-04,
          -6.92228205e-04, 1.86480989e-03, 8.83756485e-03,
          8.86016351e-04, 3.85968690e-03, -1.90760579e-03,
          -1.45274354e-03, 2.05156291e-04, 4.82633332e-04,
          -2.78960192e-03, -9.64106875e-04, -9.14457545e-04,
          -1.25731656e-03, 7.33728474e-03, 4.92412783e-03,
          1.34644751e-03, -1.02701255e-04, 2.55031977e-03,
          5.00702392e-03, 8.12810147e-04, -8.14024068e-04,
          8.35071318e-03, 3.28878127e-03, 1.83099101e-03,
          -2.67033139e-03, 2.44598556e-03, 3.79055832e-03,
          9.49409005e-05, 1.80334249e-03, 7.95749109e-03, 8.15582089e-03,
          7.20003340e-03, 8.16556253e-03, -2.12525157e-03,
          -3.51056154e-03, 1.80086074e-03, 1.76732230e-03,
          4.81338333e-03, 8.30053352e-03, 6.69855566e-04, 7.45910173e-03,
          7.64424074e-03, 7.41680060e-03, 5.61446138e-03, 5.26533369e-03,
          3.76688386e-03, 2.39315955e-03, -2.48846458e-03,
          -1.82908541e-03, 4.45141783e-03, 3.42713483e-03,
          4.25845757e-03, 3.70417698e-03, 4.49331384e-03, 3.85059766e-03,
          2.80304067e-03, -1.84559263e-03, 3.06739286e-03,
          9.13953688e-03, 9.46072862e-03, 5.39262267e-03, 1.26678392e-03,
          2.10078945e-03, 1.28151034e-03, 3.48587660e-03, 1.61784398e-03,
          -2.30591022e-03, 5.13403863e-03, 7.89662823e-03,
          4.74120537e-03, 2.04502372e-03, 2.97500665e-04,
          -1.38083153e-04, 3.60432151e-03, 2.71697150e-04,
          -5.40454825e-03, -1.46761580e-04, 2.01368518e-03,
          3.52900825e-03, 4.33320040e-03, 9.05750319e-03, 5.86986309e-03,
          5.30331023e-03, -3.14941420e-03, -7.93313887e-03,
          -3.43923620e-03, 1.65488699e-03, 4.92114481e-03,
          6.00970117e-03, 7.30668334e-03, 3.94440396e-03, 3.21184471e-03,
          -3.53974313e-03, 9.28263646e-04, 2.81223026e-03,
          5.43075101e-03, 2.20394973e-03, 3.38822417e-03, 5.31306118e-03,
          2.35347729e-03, 4.91524534e-03, 4.32722410e-03, 4.52845852e-04,
          -3.30243167e-03, -3.67374014e-04, -3.30960203e-04,
          1.70219387e-03, 7.14315753e-03, 5.61213633e-03, 5.77397784e-03,
          8.28738976e-03, -4.70388075e-03, -3.24159465e-03,
          2.33220030e-03, 6.90454803e-03, 1.01963552e-02, 8.53897259e-03,
          7.26944348e-03, 2.55384250e-03, -2.07825145e-03,
          -8.69091600e-03, -8.93411227e-03, -1.66495133e-03,
          -4.30121319e-03, 4.38293535e-03, 3.39018111e-03,
          6.57938188e-03, 3.36373050e-04, -5.67623693e-03,
          7.55921414e-04, -5.27281035e-03, 6.03967346e-05,
          4.60488349e-03, 4.87186573e-03, 1.07983975e-02, 7.55177438e-03,
          4.13040956e-03, 4.34998423e-03, -5.61384903e-03,
          -6.73911255e-03, -4.40753018e-03, -5.74134383e-03,
          2.57634814e-03, 5.82489790e-03, 1.03513040e-02, 1.58860860e-03,
          -1.14836043e-03, -1.73281450e-02, -1.03112031e-02,
          -6.02298975e-03, -1.07840113e-02, 8.29895679e-03,
          4.28990787e-03, 7.29252631e-03, -3.68318195e-03,
          -1.24120628e-02, -2.20433194e-02, -1.14036258e-02,
          -9.88122448e-03, -9.39074345e-03, 2.30592880e-02,
          2.67125238e-02, 1.05487718e-03, -6.14939164e-03,
          -1.88575182e-02, -1.58412438e-02, -8.58262833e-03,
          -6.71667838e-03, -8.03615432e-03, 1.21982880e-02,
          7.52768619e-03, 7.72978505e-03, -1.99791137e-03,
          -1.15475114e-02, -1.88046508e-02, -8.48573539e-03,
          -9.12209786e-03, -4.30444488e-03, 1.80507060e-02,
          2.50074957e-02, 1.91213994e-03, -6.00410858e-03,
          -1.71064939e-02, -2.52723563e-02, -1.56545416e-02,
          -1.61691662e-02, -1.34200249e-02, 2.62901876e-02,
          2.51479894e-02, -9.61774494e-03, -1.16492035e-02,
          -2.34766994e-02, -2.36600377e-02, -1.59778353e-02,
          -1.49413496e-02, -1.37814377e-02, 2.02673022e-02,
          2.21771393e-02, -1.18725616e-02, -1.29125826e-02,
          -2.27782447e-02, -2.00346746e-02, -9.49181616e-03,
          -1.29134078e-02, -1.02360472e-02, 2.15732027e-02,
          2.56092455e-02, -8.36717431e-03, -1.24716433e-02,
          -2.23137066e-02, -1.98206585e-02, -9.95151792e-03,
          -1.37251941e-02, -1.21156275e-02, 1.65233035e-02,
          2.40469184e-02, -1.03047825e-02, -1.27348769e-02,
          -2.30297148e-02 ]
   uncompressed_sv_total: 35
   uncompressed_support_vectors:
      - [ 2.44488046e-01, 1.26639947e-01, 1.73858508e-01, 7.19050467e-02,
          6.57238141e-02, 4.72353138e-02, 3.89870033e-02, 6.21018261e-02,
          1.55252188e-01, 2.58551002e-01, 8.50149840e-02, 1.21465944e-01,
          8.71663988e-02, 1.07028447e-01, 5.31595238e-02, 5.51872067e-02,
          1.03164122e-01, 2.66572863e-01, 2.66572863e-01, 2.66572863e-01,
          2.66572863e-01, 1.91599399e-01, 1.64900303e-01, 6.00490682e-02,
          2.13508755e-02, 1.10472843e-01, 2.47895867e-01, 2.66572863e-01,
          1.75751805e-01, 2.26600513e-01, 8.16509947e-02, 1.23761572e-01,
          7.73874000e-02, 9.22825560e-02, 1.97449118e-01, 2.66572863e-01,
          2.05633610e-01, 6.10143095e-02, 1.13539286e-01, 4.21465784e-02,
          5.22477925e-02, 7.02029169e-02, 6.45130649e-02, 1.38380200e-01,
          3.11556280e-01, 2.98672765e-01, 1.03822537e-01, 8.61348286e-02,
          3.09045687e-02, 4.63003367e-02, 6.30725175e-02, 4.06436734e-02,
          1.56996071e-01, 3.11556280e-01, 3.11556280e-01, 6.45821467e-02,
          8.56390893e-02, 5.65098040e-02, 7.89597183e-02, 8.93419236e-02,
          1.42791733e-01, 2.06301287e-01, 3.11556280e-01, 3.11556280e-01,
          1.33596942e-01, 7.21350461e-02, 8.58204812e-02, 7.99509138e-02,
          5.82710952e-02, 1.09338939e-01, 1.95023179e-01, 3.11556280e-01,
          2.52615273e-01, 9.59796458e-02, 6.08391389e-02, 4.37152684e-02,
          4.91997488e-02, 2.56505627e-02, 1.85536835e-02, 6.98467717e-02,
          3.44321340e-01, 2.29027167e-01, 7.69208968e-02, 3.47923711e-02,
          4.05951738e-02, 3.41689847e-02, 1.91304218e-02, 9.55240894e-03,
          3.75612192e-02, 3.44321340e-01, 3.44321340e-01, 1.93425089e-01,
          7.14034289e-02, 8.27809498e-02, 6.94276094e-02, 2.46927105e-02,
          6.58717975e-02, 1.27645060e-01, 3.44321340e-01, 3.44321340e-01,
          2.10054204e-01, 3.47991660e-02, 3.75700593e-02, 6.57015592e-02,
          1.68003589e-02, 3.65021080e-02, 7.68687576e-02, 3.44321340e-01,
          1.71599776e-01, 4.78419699e-02, 1.42564187e-02, 1.44494660e-02,
          1.60278510e-02, 8.71519092e-03, 6.39488781e-03, 4.31367494e-02,
          3.82782519e-01, 2.04071105e-01, 3.14068981e-02, 2.14827843e-02,
          1.07335597e-02, 1.10258926e-02, 3.76979564e-03, 9.62752104e-03,
          4.41684388e-02, 3.74685824e-01, 3.82782519e-01, 7.49434531e-02,
          1.91531442e-02, 1.27366595e-02, 3.74017656e-02, 8.67776759e-03,
          1.42714120e-02, 9.10740346e-02, 3.82782519e-01, 3.82782519e-01,
          5.04807793e-02, 3.48532833e-02, 4.02168278e-03, 6.69854274e-03,
          7.54522998e-03, 9.48621798e-03, 1.52694911e-01, 3.82782519e-01,
          1.59307882e-01, 3.87237072e-02, 2.65995320e-02, 1.37835443e-02,
          9.40252002e-03, 3.26209725e-03, 1.59973297e-02, 4.47690114e-02,
          3.10604423e-01, 1.76993430e-01, 6.35926947e-02, 2.84064244e-02,
          1.34046096e-02, 2.27333903e-02, 5.23761101e-03, 1.28280744e-02,
          3.59220877e-02, 2.98333913e-01, 3.81564766e-01, 1.58670008e-01,
          4.77675088e-02, 5.54079982e-03, 4.81537217e-03, 3.29365488e-03,
          3.05527933e-02, 2.35405669e-01, 3.81564766e-01, 3.81564766e-01,
          1.77567720e-01, 2.96670850e-02, 8.88275076e-03, 1.74832270e-02,
          7.11204903e-03, 6.75100461e-02, 1.96408451e-01, 3.81564766e-01,
          1.44923434e-01, 4.11857739e-02, 2.73076538e-02, 1.60841793e-02,
          4.76730429e-02, 1.84113719e-02, 9.12854169e-03, 2.88737100e-02,
          2.59269476e-01, 1.05214708e-01, 2.81110648e-02, 1.77544244e-02,
          1.10696880e-02, 3.46549749e-02, 2.43115872e-02, 1.87094025e-02,
          5.49818911e-02, 1.65610105e-01, 3.84745061e-01, 9.35187712e-02,
          2.97647081e-02, 1.69090088e-02, 4.58394364e-02, 3.32713090e-02,
          3.88766900e-02, 1.19368449e-01, 3.84745061e-01, 3.66475254e-01,
          1.21480763e-01, 8.33207592e-02, 3.82939130e-02, 1.52614474e-01,
          1.73731908e-01, 1.57695845e-01, 3.84745061e-01, 3.84745061e-01,
          7.12128133e-02, 3.90520915e-02, 3.08888778e-02, 1.88060962e-02,
          4.14443836e-02, 5.92569187e-02, 2.79860478e-02, 8.18934441e-02,
          1.10296488e-01, 1.11146003e-01, 5.51680699e-02, 3.55000794e-02,
          2.75827944e-02, 8.24395865e-02, 1.58566266e-01, 7.21443146e-02,
          1.33029059e-01, 1.87555552e-01, 2.08799303e-01, 1.12900116e-01,
          1.19332857e-01, 7.08735064e-02, 2.85113752e-01, 2.85113752e-01,
          2.85113752e-01, 2.85113752e-01, 2.85113752e-01, 1.32365122e-01,
          5.68736754e-02, 4.52909842e-02, 4.34351638e-02, 2.10270628e-01,
          2.70056039e-01, 2.85113752e-01, 2.85113752e-01, 2.65430927e-01,
          1.42222032e-01, 1.72306836e-01, 2.20354274e-01, 2.00033724e-01,
          2.20354274e-01, 5.84593713e-02, 1.93338767e-02, 7.13966712e-02,
          1.24452688e-01, 2.20354274e-01, 2.20354274e-01, 2.20354274e-01,
          1.12964064e-01, 1.47508308e-01, 1.26237780e-01, 1.03800043e-01,
          1.72617778e-01, 2.20354274e-01, 1.05650485e-01, 9.49636996e-02,
          2.20354274e-01, 2.09950492e-01, 2.20354274e-01, 5.75850531e-02,
          7.31509700e-02, 1.01222783e-01, 1.19149536e-01, 2.06880361e-01,
          2.20354274e-01, 2.20354274e-01, 1.34391367e-01, 1.51909083e-01,
          1.40558451e-01, 1.37355998e-01, 2.10111082e-01, 2.06947193e-01,
          2.16899157e-01, 1.73940316e-01, 1.42794982e-01, 1.12242050e-01,
          1.41706944e-01, 1.66477397e-01, 1.91274941e-01, 1.71417579e-01,
          2.16899157e-01, 2.00240463e-01, 1.13653615e-01, 6.32583201e-02,
          1.80877045e-01, 1.74364135e-01, 1.23569749e-01, 1.49215758e-01,
          1.03629619e-01, 2.16899157e-01, 2.16899157e-01, 2.16899157e-01,
          1.89430922e-01, 1.93392336e-01, 1.51394144e-01, 1.83014452e-01,
          1.46687835e-01, 1.67655304e-01, 1.71790689e-01, 1.36118874e-01,
          1.73691183e-01, 8.41237605e-02, 2.16899157e-01, 2.16899157e-01,
          1.40213057e-01, 1.17769502e-01, 1.05212107e-01, 1.17847621e-01,
          2.53809482e-01, 1.78134620e-01, 8.82901102e-02, 2.09391102e-01,
          2.19605222e-01, 6.45064637e-02, 9.37871560e-02, 1.00624926e-01,
          2.53809482e-01, 2.53809482e-01, 1.35848880e-01, 7.97393620e-02,
          1.28063366e-01, 1.47842377e-01, 2.78283693e-02, 4.87520732e-02,
          6.94745183e-02, 2.53809482e-01, 1.97328866e-01, 1.36217281e-01,
          1.03152663e-01, 2.53809482e-01, 2.53809482e-01, 1.48172855e-01,
          1.06893361e-01, 1.09014578e-01, 1.76306874e-01, 1.66553989e-01,
          8.24814141e-02, 1.85937956e-01, 2.53809482e-01, 2.53809482e-01,
          8.81950259e-02, 9.22664329e-02, 8.38807151e-02, 1.39471725e-01,
          3.08040202e-01, 9.14499015e-02, 1.41668469e-01, 1.22926243e-01,
          1.19491003e-01, 5.61780035e-02, 3.98208201e-02, 1.14787638e-01,
          3.08040202e-01, 3.08040202e-01, 8.60030577e-02, 1.01140000e-01,
          4.79375161e-02, 6.70549944e-02, 6.54705539e-02, 3.23567241e-02,
          1.63286448e-01, 3.08040202e-01, 1.57853365e-01, 1.01021081e-01,
          2.78270960e-01, 3.08040202e-01, 2.81949043e-01, 9.61327851e-02,
          4.47569266e-02, 6.09483160e-02, 1.52487755e-01, 1.35327771e-01,
          8.09817761e-02, 1.62331775e-01, 1.51471615e-01, 2.02112690e-01,
          1.41228512e-01, 7.14253336e-02, 4.93713729e-02, 1.32500693e-01,
          2.61598438e-01, 1.53136998e-01, 6.09429777e-02, 3.68191265e-02,
          6.27702549e-02, 3.57317105e-02, 3.76823805e-02, 1.79115951e-01,
          2.92763859e-01, 2.92763859e-01, 1.71351969e-01, 7.63389170e-02,
          4.40200381e-02, 1.11300923e-01, 4.47234884e-02, 8.68760124e-02,
          2.15753973e-01, 2.92763859e-01, 5.84175736e-02, 6.10556416e-02,
          1.12806723e-01, 1.53468043e-01, 1.98770389e-01, 1.19203538e-01,
          9.03912932e-02, 4.19298112e-02, 8.58603716e-02, 1.18556358e-01,
          2.29264304e-01, 2.81142265e-01, 2.38586977e-01, 2.92763859e-01,
          2.31502384e-01, 1.22065254e-01, 9.01707336e-02, 1.38929084e-01,
          2.27645829e-01, 5.33172227e-02, 3.97321284e-02, 1.84211303e-02,
          4.70509306e-02, 3.10196187e-02, 3.59843113e-02, 7.15252012e-02,
          2.56297290e-01, 1.45788252e-01, 1.06060646e-01, 1.67300910e-01,
          9.70302895e-02, 2.51940846e-01, 1.86408788e-01, 9.57074091e-02,
          2.51647264e-01, 2.56297290e-01, 9.98398885e-02, 1.87547401e-01,
          1.81434408e-01, 1.07839294e-01, 2.56297290e-01, 2.03815550e-01,
          1.30888209e-01, 4.98512611e-02, 9.40216258e-02, 8.94020423e-02,
          1.60956860e-01, 2.56297290e-01, 2.56297290e-01, 2.56297290e-01,
          2.56297290e-01, 1.36579588e-01, 6.38514459e-02, 1.20481946e-01,
          6.47515655e-02, 1.03195116e-01, 2.46019319e-01, 1.36955291e-01,
          2.82925218e-01, 2.60237366e-01, 1.97604582e-01, 2.82925218e-01,
          2.01292455e-01, 2.51635760e-02, 2.12084074e-02, 4.74592447e-02,
          3.84648629e-02, 2.45690778e-01, 1.06860235e-01, 1.09531775e-01,
          9.74923670e-02, 4.53529730e-02, 1.00624472e-01, 1.67090118e-01,
          2.82925218e-01, 2.82925218e-01, 2.82925218e-01, 2.82925218e-01,
          1.01856977e-01, 5.95498160e-02, 1.07027635e-01, 6.81414306e-02,
          7.32653439e-02, 9.89219919e-02, 7.93117732e-02, 2.54587948e-01,
          1.18335195e-01, 7.25872666e-02, 2.61250734e-02, 3.23225521e-02,
          1.76395640e-01, 9.86833945e-02, 2.37742305e-01, 2.37742305e-01,
          2.37742305e-01, 8.80291462e-02, 1.51333392e-01, 9.74477753e-02,
          1.93896234e-01, 2.37742305e-01, 2.01841176e-01, 1.71895310e-01,
          1.05222173e-01, 1.55107141e-01, 1.45487458e-01, 1.93073511e-01,
          1.50742650e-01, 2.37742305e-01, 1.40283316e-01, 1.08898103e-01,
          2.33602807e-01, 2.37742305e-01, 2.37742305e-01, 1.09455027e-01,
          7.92011172e-02, 4.36910726e-02, 1.71084613e-01, 1.57534599e-01,
          8.76376703e-02, 5.77282645e-02, 1.15921974e-01, 2.34671816e-01,
          1.21851675e-01, 9.45435092e-02, 5.69013357e-02, 1.72884494e-01,
          2.29068190e-01, 2.29068190e-01, 1.41713575e-01, 1.96314469e-01,
          1.90451503e-01, 1.42839208e-01, 9.04999599e-02, 1.03707574e-01,
          1.69185534e-01, 1.95269972e-01, 2.29068190e-01, 1.93670198e-01,
          2.29068190e-01, 2.29068190e-01, 1.22850545e-01, 1.01505198e-01,
          1.00594714e-01, 1.13423258e-01, 1.40593320e-01, 1.11536086e-01,
          4.03236561e-02, 7.87156969e-02, 2.03179538e-01, 1.12244658e-01,
          7.17846900e-02, 7.85836279e-02, 1.55656800e-01, 2.29068190e-01,
          2.13496462e-01, 1.60439342e-01, 2.29068190e-01, 2.21538797e-01,
          1.16481759e-01, 8.49336237e-02, 1.42823085e-01, 2.29068190e-01,
          1.20121390e-01, 1.07755974e-01, 1.71461627e-01, 2.39472657e-01,
          2.39472657e-01, 1.42367989e-01, 7.99743161e-02, 7.48853162e-02,
          1.22896984e-01, 9.55418646e-02, 7.64036402e-02, 1.97087780e-01,
          2.39472657e-01, 2.39472657e-01, 1.23342402e-01, 7.10614100e-02,
          6.93049878e-02, 1.34932145e-01, 1.45707622e-01, 1.40196711e-01,
          1.85320556e-01, 2.39472657e-01, 1.67125747e-01, 1.77505165e-01,
          6.29147217e-02, 8.98667723e-02, 1.76909506e-01, 1.53511211e-01,
          7.88347945e-02, 2.21665040e-01, 2.39472657e-01, 2.39131585e-01,
          2.38318682e-01, 9.03575495e-02, 1.31220117e-01, 2.39472657e-01,
          7.99758732e-02, 1.02793679e-01, 2.21622422e-01, 2.21622422e-01,
          2.21622422e-01, 8.95683020e-02, 4.62737456e-02, 6.82351068e-02,
          1.25278994e-01, 9.65454429e-02, 8.17050487e-02, 1.83638617e-01,
          1.73155919e-01, 2.21622422e-01, 1.59125566e-01, 1.64569080e-01,
          7.11413994e-02, 1.15413062e-01, 1.11638620e-01, 1.09585203e-01,
          2.21622422e-01, 2.21622422e-01, 2.21622422e-01, 1.85327381e-01,
          1.27431303e-01, 1.49844825e-01, 2.21622422e-01, 9.37585160e-02,
          1.99540153e-01, 2.21622422e-01, 2.21622422e-01, 2.21622422e-01,
          1.95422947e-01, 2.21622422e-01, 1.19711839e-01, 1.08550251e-01,
          5.59054203e-02, 2.91345492e-02, 1.00381590e-01, 1.57974437e-01,
          1.57083511e-01, 1.03673898e-01, 1.55512303e-01, 4.52445336e-02,
          1.08530998e-01, 5.67966029e-02, 1.10615969e-01, 1.56046033e-01,
          3.25352281e-01, 3.25352281e-01, 2.58925915e-01, 1.20070510e-01,
          3.55883464e-02, 9.12630856e-02, 1.00078419e-01, 1.01047911e-01,
          1.51620463e-01, 2.62010455e-01, 2.27465630e-01, 7.70010203e-02,
          1.68130711e-01, 8.39556530e-02, 1.71756774e-01, 7.88316578e-02,
          3.51065136e-02, 1.99289277e-01, 3.25352281e-01, 3.25352281e-01,
          1.59641847e-01, 7.88708106e-02, 4.53917682e-02, 1.21426247e-01,
          3.69132645e-02, 1.29355669e-01, 1.21331155e-01, 2.60646433e-01,
          2.77826697e-01, 2.02798903e-01, 6.88193515e-02, 1.75265390e-02,
          2.52108295e-02, 8.28778818e-02, 1.29255474e-01, 2.45580614e-01,
          2.77826697e-01, 2.77826697e-01, 2.18859896e-01, 7.72772953e-02,
          3.14277224e-02, 6.32918477e-02, 2.09205989e-02, 2.71098204e-02,
          1.71186477e-01, 2.77826697e-01, 2.77826697e-01, 1.22595742e-01,
          1.17769707e-02, 9.47627425e-03, 1.21102594e-02, 7.39198998e-02,
          8.81088600e-02, 2.39083305e-01, 2.77826697e-01, 2.77826697e-01,
          1.61069125e-01, 6.12661913e-02, 9.06727463e-02, 1.11405373e-01,
          1.45473599e-01, 1.36335507e-01, 2.69969910e-01, 2.69969910e-01,
          2.69969910e-01, 2.69969910e-01, 1.06889933e-01, 3.48229036e-02,
          1.18002310e-01, 1.56297863e-01, 1.06235370e-01, 6.32341877e-02,
          6.71038106e-02, 1.55500457e-01, 1.14282332e-01, 7.88971558e-02,
          1.98693275e-02, 1.54232055e-01, 2.25430086e-01, 9.66407210e-02,
          1.88387007e-01, 2.27942884e-01, 2.01797485e-01, 2.29944423e-01,
          1.10841244e-01, 1.49836078e-01, 2.69969910e-01, 2.69969910e-01,
          8.71092379e-02, 6.65320978e-02, 3.38441953e-02, 7.58932382e-02,
          8.55449215e-02, 5.04535362e-02, 6.49348795e-02, 2.69969910e-01,
          1.21284321e-01, 7.48907998e-02, 1.69187352e-01, 2.29873016e-01,
          2.29873016e-01, 1.31976798e-01, 7.87858665e-02, 4.63270061e-02,
          1.15220398e-01, 1.41429663e-01, 8.95175561e-02, 9.09250677e-02,
          1.21910423e-01, 2.29873016e-01, 1.77566603e-01, 1.01679064e-01,
          1.22538514e-01, 1.17214836e-01, 2.29873016e-01, 9.17498097e-02,
          1.96006611e-01, 2.24272549e-01, 2.29873016e-01, 2.29873016e-01,
          1.35292128e-01, 9.74213779e-02, 2.20239088e-01, 2.29873016e-01,
          1.72252446e-01, 2.10670277e-01, 2.05500945e-01, 2.29873016e-01,
          1.79141447e-01, 7.93077871e-02, 1.03142172e-01, 1.62705153e-01,
          1.14121415e-01, 1.48468196e-01, 1.10489830e-01, 7.87401721e-02,
          2.18167827e-01, 1.54502153e-01, 7.97881782e-02, 1.24605037e-01,
          1.45975098e-01, 1.89898729e-01, 2.18167827e-01, 1.47330686e-01,
          2.18167827e-01, 1.67953968e-01, 1.31842658e-01, 6.03221543e-02,
          1.37459725e-01, 2.16423288e-01, 1.44978419e-01, 1.63211167e-01,
          2.18167827e-01, 1.90672129e-01, 2.18167827e-01, 1.61933973e-01,
          6.94265887e-02, 1.39478996e-01, 1.99232489e-01, 1.73610717e-01,
          1.25975713e-01, 1.38916194e-01, 2.18167827e-01, 2.18167827e-01,
          2.18167827e-01, 7.96456933e-02, 1.74101487e-01, 2.18167827e-01,
          1.29936546e-01, 1.34426132e-01, 1.54003188e-01, 2.29750738e-01,
          2.02696502e-01, 1.73446968e-01, 5.47976755e-02, 7.52494037e-02,
          1.25782162e-01, 2.06226677e-01, 6.33141324e-02, 2.08798960e-01,
          2.29750738e-01, 2.29750738e-01, 2.29750738e-01, 1.32763684e-01,
          1.47613004e-01, 2.29750738e-01, 1.88075215e-01, 8.81773531e-02,
          1.04102917e-01, 2.29750738e-01, 1.95312768e-01, 1.10456169e-01,
          6.52743801e-02, 8.90194029e-02, 1.39897302e-01, 2.29750738e-01,
          8.04278255e-02, 1.52821079e-01, 1.94685057e-01, 2.16561839e-01,
          1.22277573e-01, 1.08898841e-01, 1.18400767e-01, 2.29750738e-01,
          1.80480361e-01, 8.58060047e-02, 1.70060411e-01, 2.16114551e-01,
          2.16114551e-01, 1.65973201e-01, 1.16746180e-01, 1.47837237e-01,
          2.16114551e-01, 1.67803064e-01, 2.16114551e-01, 2.16114551e-01,
          2.16114551e-01, 1.87395081e-01, 1.47518605e-01, 1.76448300e-01,
          1.30784646e-01, 9.43841636e-02, 2.16114551e-01, 7.17223510e-02,
          9.67379510e-02, 1.31784663e-01, 1.65432483e-01, 1.10768534e-01,
          5.24787419e-02, 1.12225801e-01, 1.79632753e-01, 2.16114551e-01,
          2.16114551e-01, 1.34856701e-01, 2.16114551e-01, 2.16114551e-01,
          1.34764642e-01, 9.11469758e-02, 1.51879802e-01, 1.52184457e-01,
          1.05385914e-01, 1.18212864e-01, 1.08688727e-01, 2.11541355e-01,
          1.58984363e-01, 4.23777439e-02, 8.47171918e-02, 8.23111087e-02,
          6.47825897e-02, 6.24728762e-02, 3.74647416e-02, 1.90695524e-01,
          3.14543992e-01, 3.14543992e-01, 8.59988034e-02, 2.50258278e-02,
          3.48561294e-02, 4.33689505e-02, 1.20615773e-01, 1.04162119e-01,
          1.13476135e-01, 1.61815017e-01, 2.48566046e-01, 1.41193777e-01,
          9.08929482e-02, 1.09150231e-01, 9.14734080e-02, 9.11420584e-02,
          9.39982906e-02, 3.14543992e-01, 3.14543992e-01, 3.14543992e-01,
          3.14543992e-01, 1.43784419e-01, 5.49567230e-02, 8.95378143e-02,
          2.16118414e-02, 2.86171250e-02, 1.68810591e-01, 2.78471351e-01,
          2.78471351e-01, 9.44408476e-02, 4.40936675e-03, 6.46055583e-03,
          1.42601784e-02, 9.17036086e-02, 1.11119255e-01, 2.21717939e-01,
          2.70609796e-01, 2.78471351e-01, 8.18455741e-02, 3.24226804e-02,
          9.47497711e-02, 1.11038536e-01, 6.67978302e-02, 7.06790537e-02,
          2.78471351e-01, 2.78471351e-01, 2.78471351e-01, 1.82298183e-01,
          5.40275984e-02, 1.14912912e-02, 4.60120589e-02, 1.26667321e-01,
          8.95362496e-02, 2.78471351e-01, 2.78471351e-01, 2.78471351e-01,
          6.26408458e-02, 3.89372893e-02, 5.44732548e-02, 8.83439034e-02,
          2.67865092e-01, 1.10531487e-01, 1.40045777e-01, 1.36580899e-01,
          1.58004761e-01, 6.94066510e-02, 6.33505285e-02, 2.20967323e-01,
          2.67865092e-01, 2.67865092e-01, 8.94767269e-02, 3.94776277e-02,
          9.19783954e-03, 2.87175179e-02, 3.82295586e-02, 4.72478345e-02,
          1.46537617e-01, 2.67865092e-01, 2.37858489e-01, 9.75419134e-02,
          1.69948280e-01, 2.41284743e-01, 2.57893920e-01, 2.50833370e-02,
          6.83330894e-02, 1.75331309e-01, 2.67495424e-01, 2.67865092e-01,
          1.40022233e-01, 3.74654531e-02, 1.96751133e-02, 4.93401922e-02,
          3.19568180e-02, 8.27689692e-02, 1.97653577e-01, 2.67865092e-01,
          2.99976051e-01, 5.92204854e-02, 7.25629404e-02, 5.05513996e-02,
          1.05338104e-01, 9.34711918e-02, 6.36126548e-02, 8.97022858e-02,
          2.99976051e-01, 2.95369864e-01, 1.11881025e-01, 1.01103663e-01,
          1.07475556e-01, 1.34041712e-01, 5.77848852e-02, 5.80671094e-02,
          1.16914056e-01, 2.99976051e-01, 2.99976051e-01, 9.65600237e-02,
          2.89125070e-02, 3.18535008e-02, 8.42672512e-02, 3.71348411e-02,
          5.09482622e-02, 1.28342122e-01, 2.99976051e-01, 2.99976051e-01,
          1.49843782e-01, 6.37514219e-02, 9.63921472e-02, 1.51041359e-01,
          3.27045806e-02, 7.67112076e-02, 2.44274929e-01, 2.99976051e-01,
          1.60820082e-01, 7.77051896e-02, 7.67626390e-02, 1.12517141e-01,
          1.68613568e-01, 7.69978836e-02, 3.96351367e-02, 1.19441688e-01,
          3.30135614e-01, 2.20980689e-01, 4.84518558e-02, 3.98790166e-02,
          7.66460076e-02, 1.40688613e-01, 1.02209739e-01, 5.17962277e-02,
          7.92497993e-02, 3.45645428e-01, 3.45645428e-01, 6.35709390e-02,
          4.42609414e-02, 8.08285996e-02, 1.01524003e-01, 4.73701321e-02,
          3.65197584e-02, 1.81568384e-01, 3.45645428e-01, 3.45645428e-01,
          7.78338239e-02, 3.39639708e-02, 4.62469980e-02, 8.12673867e-02,
          6.93498775e-02, 7.27982298e-02, 7.90907368e-02, 3.45645428e-01,
          2.34905064e-01, 5.08190654e-02, 4.21237312e-02, 5.60212694e-02,
          7.62685463e-02, 3.85440812e-02, 6.83882535e-02, 7.65656903e-02,
          2.55922318e-01, 2.13982821e-01, 7.47085959e-02, 1.07231162e-01,
          4.90095243e-02, 7.34486803e-02, 4.85417172e-02, 7.19176531e-02,
          1.39065206e-01, 3.19010049e-01, 3.29263985e-01, 1.22205794e-01,
          4.65095453e-02, 4.87182699e-02, 4.52148467e-02, 4.11971733e-02,
          1.08376317e-01, 2.27466285e-01, 3.29263985e-01, 3.29263985e-01,
          9.80227590e-02, 6.09901994e-02, 3.45507711e-02, 3.95659693e-02,
          4.82892804e-02, 6.48400187e-02, 3.29263985e-01, 3.29263985e-01,
          1.42460942e-01, 4.24088426e-02, 6.59341142e-02, 3.01468242e-02,
          6.63153827e-02, 5.03889881e-02, 2.27563158e-02, 6.99743629e-02,
          2.65009671e-01, 2.35595316e-01, 4.69415113e-02, 4.56559770e-02,
          1.17299929e-01, 2.01263532e-01, 9.76815298e-02, 3.12788039e-02,
          6.30453750e-02, 2.60477006e-01, 3.75397831e-01, 4.00562733e-02,
          3.33921872e-02, 2.42213048e-02, 4.08959687e-02, 5.97438551e-02,
          4.06623185e-02, 1.79603338e-01, 3.75397831e-01, 3.75397831e-01,
          6.58614337e-02, 6.97267726e-02, 8.65177885e-02, 8.61626416e-02,
          8.74188766e-02, 3.98052633e-02, 2.24561378e-01, 3.75397831e-01,
          1.78737730e-01, 4.58649956e-02, 6.28179610e-02, 9.22413394e-02,
          2.15745538e-01, 1.29400909e-01, 7.82496333e-02, 6.81971014e-02,
          1.54249921e-01, 1.65452778e-01, 1.03858091e-01, 2.69639045e-01,
          2.20466107e-01, 2.69639045e-01, 2.27103516e-01, 2.00143903e-01,
          5.22598810e-02, 1.61143348e-01, 2.69639045e-01, 3.87349762e-02,
          4.24637087e-02, 7.15007856e-02, 7.19312653e-02, 5.22141829e-02,
          2.96193939e-02, 2.69483268e-01, 2.69639045e-01, 2.69639045e-01,
          1.04813986e-01, 2.02633232e-01, 1.00017153e-01, 8.66534859e-02,
          5.44171110e-02, 6.01023138e-02, 2.08964348e-01, 2.69639045e-01,
          9.16468203e-02, 1.16379872e-01, 2.65831888e-01, 2.65831888e-01,
          2.29630843e-01, 1.04876213e-01, 7.86821693e-02, 2.07214560e-02,
          6.20051026e-02, 6.69595301e-02, 7.96616897e-02, 2.65831888e-01,
          2.65831888e-01, 2.65831888e-01, 4.57397848e-02, 4.99801710e-02,
          3.80118303e-02, 4.66646664e-02, 2.65831888e-01, 2.21378863e-01,
          2.65831888e-01, 2.64756620e-01, 1.32080451e-01, 3.13325822e-02,
          3.46177630e-02, 4.22337689e-02, 1.61533967e-01, 7.59214684e-02,
          1.60132989e-01, 2.65831888e-01, 2.65831888e-01, 2.01595828e-01,
          3.03157866e-02, 3.60529795e-02, 5.18939607e-02, 5.09714223e-02,
          1.49828032e-01, 9.79480520e-02, 2.39278525e-01, 2.44537398e-01,
          2.44537398e-01, 1.03552312e-01, 1.30434602e-01, 1.28796294e-01,
          1.82604760e-01, 2.02794030e-01, 1.54269978e-01, 9.50026885e-02,
          1.08199894e-01, 1.50749981e-01, 1.36149466e-01, 1.04139090e-01,
          1.47446156e-01, 2.38692090e-01, 1.54018745e-01, 7.49182701e-02,
          2.44537398e-01, 2.44537398e-01, 2.44537398e-01, 1.23147711e-01,
          9.75012854e-02, 1.28239751e-01, 2.12085515e-01, 2.06985950e-01,
          9.04054940e-02, 1.26534358e-01, 1.65775046e-01, 1.66851386e-01,
          1.90008536e-01, 1.13184564e-01, 7.12112784e-02, 1.52819008e-01,
          2.16763765e-01, 1.85410425e-01, 8.32725763e-02, 1.19470403e-01,
          1.59395978e-01, 9.00678337e-02, 7.17712641e-02, 1.14594176e-01,
          2.56243199e-01, 2.56243199e-01, 2.56243199e-01, 1.47964299e-01,
          1.94091454e-01, 2.56243199e-01, 1.00549623e-01, 6.85297400e-02,
          1.55061185e-01, 2.56243199e-01, 1.52002484e-01, 1.58739805e-01,
          1.33723080e-01, 1.25918299e-01, 9.08228979e-02, 1.65549055e-01,
          1.44894838e-01, 1.83567747e-01, 2.56243199e-01, 1.28721669e-01,
          1.70991778e-01, 1.62514955e-01, 1.33240700e-01, 1.28068909e-01,
          1.52122319e-01, 9.76897329e-02, 1.33813813e-01, 1.46068409e-01,
          3.55361879e-01, 8.94790739e-02, 8.21400508e-02, 1.31387517e-01,
          2.00230092e-01, 9.21194702e-02, 8.30267593e-02, 1.28271058e-01,
          3.55361879e-01, 3.55361879e-01, 1.07607611e-01, 5.15591726e-02,
          1.08739391e-01, 2.00809151e-01, 1.75997779e-01, 2.05213934e-01,
          1.60032287e-01, 3.55361879e-01, 6.44689128e-02, 5.12832291e-02,
          5.50850406e-02, 6.09995238e-02, 1.40727773e-01, 7.88532570e-02,
          7.01935664e-02, 7.63525814e-02, 7.05197603e-02, 1.13666691e-01,
          8.65138695e-02, 5.63140064e-02, 7.54611120e-02, 2.06630930e-01,
          1.24633119e-01, 1.76869303e-01, 1.65896565e-01, 1.43866241e-01,
          2.26461321e-01, 1.39109299e-01, 3.82654183e-02, 9.52564329e-02,
          7.13592395e-02, 9.39211845e-02, 1.26989365e-01, 2.37137049e-01,
          3.00200880e-01, 3.00200880e-01, 1.58097982e-01, 4.78979684e-02,
          8.22158977e-02, 7.08018765e-02, 1.14995845e-01, 6.85788691e-02,
          3.00200880e-01, 3.00200880e-01, 1.32751822e-01, 1.18060037e-01,
          7.26595297e-02, 7.20354915e-02, 7.91055486e-02, 1.16387710e-01,
          1.67614847e-01, 1.62703261e-01, 1.52144492e-01, 2.42995471e-01,
          3.00200880e-01, 1.43551156e-01, 1.25394449e-01, 8.71992856e-02,
          1.35539889e-01, 1.22169867e-01, 1.20551579e-01, 1.77770033e-01,
          3.19457114e-01, 7.16711059e-02, 3.96776050e-02, 6.85711652e-02,
          7.14347959e-02, 8.55544657e-02, 6.50933459e-02, 1.46731883e-01,
          3.19457114e-01, 3.19457114e-01, 7.24207684e-02, 1.10784523e-01,
          1.26770034e-01, 1.08254083e-01, 1.04771025e-01, 1.09074384e-01,
          3.16231728e-01, 3.19457114e-01, 1.60353348e-01, 2.17814386e-01,
          1.23643354e-01, 1.43037245e-01, 8.18255320e-02, 7.09167942e-02,
          6.35744110e-02, 6.86569959e-02, 1.09816037e-01, 1.38426185e-01,
          1.05881736e-01, 1.10729620e-01, 1.70987368e-01, 1.30593434e-01,
          1.24105200e-01, 2.19461679e-01, 2.06348956e-01, 1.85190573e-01,
          3.08184832e-01, 4.58804630e-02, 7.61160553e-02, 9.03751701e-02,
          9.81627554e-02, 6.79217428e-02, 9.12299752e-02, 3.08184832e-01,
          3.08184832e-01, 3.08184832e-01, 1.01309352e-01, 1.46974355e-01,
          8.56545419e-02, 9.01574343e-02, 4.23039198e-02, 4.44704369e-02,
          2.37182572e-01, 3.08184832e-01, 1.41589627e-01, 6.76366165e-02,
          7.54734874e-02, 8.64154473e-02, 1.40683219e-01, 9.07238275e-02,
          2.29401544e-01, 1.98677793e-01, 2.38343313e-01, 2.24761158e-01,
          9.88965482e-02, 8.97286087e-02, 1.22863919e-01, 1.42120808e-01,
          3.34356129e-02, 9.53675807e-02, 8.36295113e-02, 2.01184794e-01,
          3.06801885e-01, 3.06801885e-01, 3.06801885e-01, 2.27629095e-01,
          1.35050341e-01, 4.24187146e-02, 5.39892241e-02, 8.13629404e-02,
          3.06801885e-01, 2.38300458e-01, 2.47912019e-01, 3.06801885e-01,
          3.06801885e-01, 1.55434504e-01, 3.87212522e-02, 6.63530380e-02,
          6.57610074e-02, 1.02881163e-01, 2.21764520e-01, 1.03707701e-01,
          1.09013550e-01, 1.01410680e-01, 1.10118076e-01, 2.94175018e-02,
          8.83587673e-02, 5.89216016e-02, 1.26751021e-01, 1.05767325e-01,
          9.32167470e-02, 9.86981615e-02, 5.23140617e-02, 6.31831437e-02,
          3.63617800e-02, 1.06529839e-01, 8.01045820e-02, 9.84430984e-02,
          2.01791406e-01, 1.21715046e-01, 2.27120712e-01, 2.27120712e-01,
          2.03466505e-01, 1.36910111e-01, 1.37854695e-01, 1.59211963e-01,
          2.27120712e-01, 2.20790952e-01, 8.79755691e-02, 1.79653510e-01,
          1.62283078e-01, 1.88950136e-01, 2.27120712e-01, 2.27120712e-01,
          1.55185327e-01, 2.27120712e-01, 1.39439985e-01, 1.44313350e-01,
          1.35310039e-01, 1.28728971e-01, 1.14994161e-01, 1.10200264e-01,
          1.77236333e-01, 1.40231177e-01, 1.78511679e-01, 9.71206799e-02,
          5.67624904e-02, 1.35680690e-01, 8.83562267e-02, 1.21043034e-01,
          1.92551732e-01, 1.82133734e-01, 1.48203358e-01, 1.55295998e-01,
          2.17877984e-01, 1.96464419e-01, 1.57819346e-01, 8.30026790e-02,
          7.83390254e-02, 1.65684700e-01, 1.99878871e-01, 2.17877984e-01,
          2.17877984e-01, 2.17877984e-01, 2.17877984e-01, 1.54211551e-01,
          7.41752014e-02, 7.62839168e-02, 1.25811592e-01, 1.56149626e-01,
          1.92690372e-01, 2.17877984e-01, 1.79680467e-01, 1.95374265e-01,
          1.47895470e-01, 8.03890899e-02, 1.28006861e-01, 1.09704755e-01,
          1.32121980e-01, 1.00540243e-01, 1.52496248e-01, 2.17877984e-01,
          2.17877984e-01, 1.90325975e-01, 7.98674598e-02, 2.17877984e-01,
          1.02574646e-01, 1.38520077e-01, 1.34377703e-01, 2.14021802e-01,
          8.34332481e-02, 9.75291133e-02, 7.58403912e-02, 7.49594346e-02,
          8.11530277e-02, 4.54127751e-02, 4.41022180e-02, 7.54649341e-02,
          7.79975951e-02, 2.01195002e-01, 1.51733205e-01, 1.47101909e-01,
          1.21992864e-01, 1.42500758e-01, 1.56443655e-01, 1.71138048e-01,
          9.69771966e-02, 1.84134364e-01, 2.34122232e-01, 2.34122232e-01,
          1.93268165e-01, 1.51422471e-01, 2.34122232e-01, 7.54021555e-02,
          1.27713427e-01, 1.07696787e-01, 1.26545653e-01, 2.34122232e-01,
          2.34122232e-01, 2.34122232e-01, 2.34122232e-01, 2.34122232e-01,
          2.27791741e-01, 2.34122232e-01, 1.45423114e-01, 2.31939077e-01,
          1.43126488e-01, 8.20064917e-02, 9.04028341e-02, 5.88150024e-02,
          6.78612664e-02, 2.01942056e-01, 2.34414846e-01, 1.53554797e-01,
          1.54270753e-01, 1.63889602e-01, 1.97789058e-01, 1.36527166e-01,
          1.41526416e-01, 6.32544681e-02, 1.80921957e-01, 2.34414846e-01,
          1.81963518e-01, 1.49346694e-01, 1.08427338e-01, 9.47961286e-02,
          1.71115965e-01, 1.63323015e-01, 1.25807896e-01, 2.20127776e-01,
          2.34414846e-01, 1.80531636e-01, 1.24773800e-01, 4.14441042e-02,
          1.39395863e-01, 1.49652392e-01, 2.34414846e-01, 2.34414846e-01,
          2.34414846e-01, 2.34414846e-01, 2.06852823e-01, 9.55260545e-02,
          1.38728619e-01, 2.19137415e-01, 1.98313698e-01, 2.19137415e-01,
          9.51062068e-02, 9.90152508e-02, 1.41847745e-01, 9.73581001e-02,
          1.04644373e-01, 1.23338200e-01, 2.19137415e-01, 1.50549680e-01,
          2.07259044e-01, 2.09436297e-01, 2.19137415e-01, 2.19137415e-01,
          1.90649480e-01, 1.43904448e-01, 3.62793803e-02, 1.66875392e-01,
          1.30159423e-01, 2.19137415e-01, 2.19137415e-01, 2.19137415e-01,
          1.65078804e-01, 9.71531793e-02, 7.74297044e-02, 4.83439304e-02,
          1.27275079e-01, 9.58619043e-02, 1.74036667e-01, 2.08152056e-01,
          2.19137415e-01, 1.53273165e-01, 2.12430194e-01, 8.45090896e-02,
          1.94948137e-01, 1.52988851e-01, 1.10769473e-01, 1.51096001e-01,
          2.15349466e-01, 2.15349466e-01, 2.15349466e-01, 2.15349466e-01,
          2.15349466e-01, 2.15349466e-01, 1.49038821e-01, 1.17072977e-01,
          2.15349466e-01, 2.07425371e-01, 8.85830894e-02, 1.54557541e-01,
          1.08934306e-01, 1.94858447e-01, 9.25418064e-02, 1.58413932e-01,
          1.49362639e-01, 1.11891814e-01, 1.75969556e-01, 1.84028566e-01,
          1.93619117e-01, 2.15349466e-01, 1.00184970e-01, 1.42127305e-01,
          2.15349466e-01, 1.61415204e-01, 1.44271493e-01, 1.66177258e-01,
          9.49583203e-02, 9.64983031e-02, 1.08791344e-01, 1.33228064e-01,
          1.20038398e-01, 1.08692087e-01, 1.20069936e-01, 1.77043602e-01,
          1.94904283e-01, 1.16028212e-01, 1.63174197e-01, 1.07135661e-01,
          1.04840092e-01, 1.08412482e-01, 1.78510338e-01, 1.97468117e-01,
          1.51207671e-01, 1.94639280e-01, 1.56175137e-01, 1.58299685e-01,
          1.64720803e-01, 1.55080304e-01, 1.07566044e-01, 1.45299196e-01,
          9.57383215e-02, 1.41659677e-01, 2.01412633e-01, 1.77527189e-01,
          1.80065945e-01, 1.75944373e-01, 1.74544960e-01, 2.09486634e-01,
          2.02224970e-01, 1.79676905e-01, 1.96096525e-01, 2.09486634e-01,
          2.09486634e-01, 1.49940982e-01, 2.09486634e-01, 2.09486634e-01,
          1.77662373e-01, 2.14713261e-01, 2.18528166e-01, 2.23462686e-01,
          2.23462686e-01, 1.52396798e-01, 1.36176512e-01, 1.62678584e-01,
          2.15046138e-01, 1.13880426e-01, 4.73147407e-02, 7.08153695e-02,
          1.24235772e-01, 1.41018823e-01, 7.95351341e-02, 1.16466381e-01,
          1.42357126e-01, 1.47233635e-01, 2.23462686e-01, 2.23462686e-01,
          2.04609379e-01, 2.23462686e-01, 2.23462686e-01, 1.85428619e-01,
          8.82231966e-02, 2.23462686e-01, 2.18953162e-01, 1.25335455e-01,
          7.42264241e-02, 7.86614642e-02, 1.23506889e-01, 2.23462686e-01,
          8.98172557e-02, 1.22393921e-01, 1.52200103e-01, 1.41993791e-01 ]
      - [ 1.40349433e-01, 2.19459936e-01, 2.19459936e-01, 2.19459936e-01,
          1.52659655e-01, 1.09960273e-01, 8.98882374e-02, 9.90390480e-02,
          1.53430432e-01, 2.12116003e-01, 2.19459936e-01, 2.19459936e-01,
          1.55158401e-01, 1.79685861e-01, 2.12674752e-01, 1.41885012e-01,
          1.18090078e-01, 1.10848270e-01, 1.72761798e-01, 2.19459936e-01,
          2.05433086e-01, 1.31276608e-01, 1.10785976e-01, 7.52399564e-02,
          4.12254669e-02, 7.09793121e-02, 1.78481042e-01, 1.32640317e-01,
          2.17862502e-01, 2.00696543e-01, 1.26074150e-01, 2.19459936e-01,
          2.19459936e-01, 1.27997354e-01, 1.24409050e-01, 1.55337736e-01,
          1.28113955e-01, 1.04726575e-01, 2.43628383e-01, 2.43628383e-01,
          2.43628383e-01, 2.43628383e-01, 1.20818391e-01, 1.18941419e-01,
          1.01001427e-01, 2.39442680e-02, 4.94421832e-02, 2.43628383e-01,
          2.28413567e-01, 2.43628383e-01, 1.56066537e-01, 3.85194197e-02,
          3.14892642e-02, 2.60186512e-02, 1.17495604e-01, 1.74847186e-01,
          2.43628383e-01, 2.43628383e-01, 2.43628383e-01, 2.43628383e-01,
          1.34086370e-01, 1.01249367e-01, 1.42055348e-01, 9.41651165e-02,
          7.70959854e-02, 1.92968130e-01, 1.86628729e-01, 2.27290452e-01,
          1.02299206e-01, 6.76582530e-02, 2.89259460e-02, 8.82379860e-02,
          5.22783846e-02, 8.49265233e-02, 7.26164877e-02, 1.61167428e-01,
          2.39705160e-01, 1.29328102e-01, 6.83865845e-02, 6.25537485e-02,
          4.14758325e-02, 1.67751640e-01, 1.92122921e-01, 1.87813371e-01,
          2.12665081e-01, 2.39705160e-01, 2.39705160e-01, 1.46183804e-01,
          2.01806098e-01, 1.30270734e-01, 1.66207999e-01, 1.50148109e-01,
          7.02186227e-02, 2.16966972e-01, 2.05410168e-01, 9.15106609e-02,
          1.08138613e-01, 8.08763281e-02, 1.47076920e-01, 2.16455236e-01,
          2.39705160e-01, 2.39705160e-01, 2.39705160e-01, 2.39705160e-01,
          1.18594952e-01, 1.21925630e-01, 1.40655875e-01, 1.19877189e-01,
          9.56082791e-02, 1.38675556e-01, 1.18002959e-01, 1.20211408e-01,
          1.50534481e-01, 8.25251341e-02, 4.82670143e-02, 5.59182651e-02,
          5.10337763e-02, 1.92361116e-01, 2.44713262e-01, 1.29994020e-01,
          9.50008035e-02, 1.57448813e-01, 6.49406612e-02, 7.07762092e-02,
          1.42429724e-01, 1.30456477e-01, 1.26730889e-01, 2.44713262e-01,
          2.44713262e-01, 2.44713262e-01, 2.44713262e-01, 7.67442062e-02,
          7.20508397e-02, 5.89992180e-02, 9.39450413e-02, 2.44713262e-01,
          2.44713262e-01, 2.44713262e-01, 2.44713262e-01, 2.44713262e-01,
          1.38399571e-01, 1.48932338e-01, 1.71792760e-01, 2.44713262e-01,
          2.04295859e-01, 1.41060010e-01, 1.04861811e-01, 5.47419637e-02,
          1.05759427e-01, 1.25714019e-01, 1.94985896e-01, 2.04865336e-01,
          1.45396709e-01, 1.50289282e-01, 9.96453241e-02, 1.20966248e-01,
          1.01631813e-01, 1.23844437e-01, 1.35980964e-01, 2.15703130e-01,
          1.47354648e-01, 1.10780790e-01, 1.82467163e-01, 2.15703130e-01,
          2.15703130e-01, 1.24572642e-01, 2.15703130e-01, 2.15703130e-01,
          2.15703130e-01, 1.84392661e-01, 2.15703130e-01, 9.11661759e-02,
          1.65601879e-01, 2.15335861e-01, 1.40315786e-01, 2.15703130e-01,
          2.15703130e-01, 2.15703130e-01, 1.17312416e-01, 7.18263090e-02,
          9.71911550e-02, 7.21037462e-02, 1.12106659e-01, 9.60209072e-02,
          1.30653128e-01, 1.41661063e-01, 1.88273892e-01, 8.57440755e-02,
          7.91508630e-02, 1.37149781e-01, 1.04877420e-01, 1.81474924e-01,
          2.07720220e-01, 2.31117994e-01, 2.31117994e-01, 2.31117994e-01,
          1.56110421e-01, 8.71561766e-02, 9.24443975e-02, 6.83236420e-02,
          1.32137433e-01, 1.37710124e-01, 2.31117994e-01, 1.36889130e-01,
          2.31117994e-01, 1.29727855e-01, 1.33995622e-01, 2.31117994e-01,
          1.08342350e-01, 1.36822239e-01, 1.70375749e-01, 2.31117994e-01,
          2.31117994e-01, 2.31117994e-01, 2.00986043e-01, 2.31117994e-01,
          7.52441660e-02, 9.21084732e-02, 9.31874663e-02, 1.63455829e-01,
          1.88566044e-01, 2.07209617e-01, 2.07209617e-01, 1.75536126e-01,
          8.65838975e-02, 1.48306787e-01, 2.07209617e-01, 1.51632413e-01,
          2.07209617e-01, 1.63241878e-01, 1.05732895e-01, 1.71920955e-01,
          1.70387298e-01, 1.37632251e-01, 1.35409355e-01, 1.16429895e-01,
          1.35542274e-01, 1.46940812e-01, 1.81872934e-01, 1.40396819e-01,
          2.07209617e-01, 2.07209617e-01, 1.55772313e-01, 1.40599668e-01,
          2.07209617e-01, 1.97375759e-01, 2.06329674e-01, 1.67341858e-01,
          1.14549071e-01, 1.90827519e-01, 2.07209617e-01, 2.07209617e-01,
          1.64321050e-01, 1.50971353e-01, 1.17646940e-01, 9.77640375e-02,
          9.83696207e-02, 4.08590659e-02, 2.47668643e-02, 3.16673890e-02,
          1.18430324e-01, 2.29614332e-01, 1.92373961e-01, 1.54310450e-01,
          8.74384567e-02, 1.62376776e-01, 1.56232834e-01, 6.80130944e-02,
          1.28026932e-01, 2.49027833e-01, 2.19783157e-01, 2.49027833e-01,
          2.00599238e-01, 1.63052142e-01, 2.49027833e-01, 1.00497045e-01,
          1.28412414e-02, 1.14109822e-01, 1.80939034e-01, 2.49027833e-01,
          2.49027833e-01, 2.34689742e-01, 1.91737130e-01, 2.02533901e-01,
          5.36555983e-02, 4.61818324e-03, 1.59199849e-01, 2.49027833e-01,
          2.04816729e-01, 1.17599331e-01, 1.30499646e-01, 8.65358934e-02,
          1.49081036e-01, 1.51384741e-01, 5.21362573e-02, 9.71212387e-02,
          2.79999703e-01, 2.08965689e-01, 8.92853737e-02, 1.16488591e-01,
          1.46922395e-01, 1.19522847e-01, 9.77067873e-02, 1.34207457e-01,
          1.07469253e-01, 2.01584741e-01, 2.79999703e-01, 1.48428962e-01,
          1.87042415e-01, 1.55417368e-01, 1.02500759e-01, 5.64403087e-02,
          8.47430713e-03, 1.01863720e-01, 2.79999703e-01, 2.79999703e-01,
          1.67625844e-01, 1.58500463e-01, 1.69392571e-01, 6.02503195e-02,
          7.82174394e-02, 1.37523755e-01, 2.66272485e-01, 2.79999703e-01,
          1.92765057e-01, 7.42049217e-02, 4.14454043e-02, 1.05114974e-01,
          4.76130284e-02, 4.78559993e-02, 1.33949310e-01, 9.50797349e-02,
          1.70509070e-01, 1.61431536e-01, 1.18250452e-01, 6.64367974e-02,
          1.72161877e-01, 1.11136608e-01, 5.76009676e-02, 7.78167099e-02,
          7.62936324e-02, 2.10864872e-01, 3.40058297e-01, 9.06441882e-02,
          3.99805568e-02, 6.12848550e-02, 2.20866874e-02, 4.75721657e-02,
          1.72597021e-01, 2.98405766e-01, 3.40058297e-01, 3.40058297e-01,
          7.43560866e-02, 1.51689146e-02, 5.55569418e-02, 5.21049313e-02,
          3.27219367e-02, 9.20045152e-02, 3.40058297e-01, 3.40058297e-01,
          6.91686645e-02, 9.68350843e-02, 1.14683762e-01, 2.07553685e-01,
          1.92926273e-01, 1.05755366e-01, 1.40612364e-01, 8.50230455e-02,
          1.17851958e-01, 1.19435243e-01, 1.30476460e-01, 2.15705574e-01,
          1.72113732e-01, 2.37480670e-01, 1.91084579e-01, 2.37480670e-01,
          1.46906435e-01, 1.88116431e-01, 2.37480670e-01, 5.85645810e-02,
          2.90828738e-02, 7.94155002e-02, 1.10642686e-01, 7.20787793e-02,
          1.65521979e-01, 2.37480670e-01, 2.37480670e-01, 2.37480670e-01,
          5.95840253e-02, 9.81145650e-02, 7.30843395e-02, 1.45847857e-01,
          1.85029492e-01, 2.37480670e-01, 2.37480670e-01, 2.37480670e-01,
          8.71556476e-02, 1.41800568e-01, 1.47776559e-01, 9.02126878e-02,
          1.96730077e-01, 2.27538422e-01, 2.27538422e-01, 1.84750512e-01,
          1.79168969e-01, 3.84878106e-02, 1.03008449e-01, 1.19204998e-01,
          7.77697489e-02, 1.46335080e-01, 2.27538422e-01, 1.91478044e-01,
          1.51658669e-01, 9.81912911e-02, 1.78628325e-01, 5.69802597e-02,
          1.05972879e-01, 6.55948445e-02, 1.04348175e-01, 2.27538422e-01,
          2.27538422e-01, 2.27538422e-01, 2.27538422e-01, 2.15929762e-01,
          4.33727913e-02, 1.00132436e-01, 7.67673180e-02, 1.35746077e-01,
          2.27538422e-01, 2.27538422e-01, 2.23320916e-01, 2.27538422e-01,
          4.29718494e-02, 3.27959880e-02, 7.70949274e-02, 9.04162452e-02,
          2.39614516e-01, 1.47184119e-01, 1.35034263e-01, 1.01856887e-01,
          1.22814804e-01, 1.56830564e-01, 9.56665054e-02, 1.68186277e-01,
          1.45209953e-01, 2.39614516e-01, 2.39614516e-01, 2.01031402e-01,
          1.38482720e-01, 2.11598948e-01, 2.39614516e-01, 3.50406207e-02,
          6.92717731e-02, 5.82695827e-02, 1.53304592e-01, 1.51930273e-01,
          1.07589461e-01, 1.24794006e-01, 2.39614516e-01, 2.39614516e-01,
          8.13730881e-02, 1.81726485e-01, 1.22927576e-01, 2.39614516e-01,
          2.39614516e-01, 1.38427824e-01, 2.32188717e-01, 2.39614516e-01,
          1.01201795e-01, 1.06552042e-01, 2.12667271e-01, 1.49503261e-01,
          2.12667271e-01, 2.10670739e-01, 1.22128032e-01, 1.34173065e-01,
          1.31478533e-01, 8.20917711e-02, 1.22157775e-01, 1.82654873e-01,
          2.12667271e-01, 2.12667271e-01, 2.09712908e-01, 1.26736909e-01,
          1.66564047e-01, 1.84548020e-01, 1.37547791e-01, 8.48118961e-02,
          1.87764138e-01, 1.61206260e-01, 2.04458401e-01, 2.12667271e-01,
          1.19176909e-01, 1.81674510e-01, 1.93270624e-01, 1.26786068e-01,
          1.41888380e-01, 1.29363775e-01, 2.05957294e-01, 2.12667271e-01,
          2.12667271e-01, 8.65260512e-02, 1.62143514e-01, 1.51736498e-01,
          2.23854735e-01, 2.23854735e-01, 2.12279543e-01, 1.63484111e-01,
          2.23854735e-01, 1.13846250e-01, 1.87093522e-02, 1.32396653e-01,
          2.03650132e-01, 1.57364979e-01, 1.70661703e-01, 1.99048325e-01,
          1.86507791e-01, 2.23854735e-01, 7.98119605e-02, 9.77116451e-03,
          1.10968873e-01, 2.09977910e-01, 2.23854735e-01, 1.06988288e-01,
          1.88275322e-01, 2.23854735e-01, 2.23854735e-01, 1.58263087e-01,
          1.48677588e-01, 1.43580392e-01, 1.99529871e-01, 1.41148120e-01,
          6.43038973e-02, 1.43584475e-01, 1.46718770e-01, 2.23854735e-01,
          7.94168115e-02, 5.08351885e-02, 1.08480670e-01, 1.42385706e-01,
          1.41837925e-01, 8.98063183e-02, 2.44423449e-01, 1.94157720e-01,
          2.36360729e-01, 9.07562748e-02, 1.23242317e-02, 5.91311082e-02,
          2.91413158e-01, 2.91413158e-01, 8.77946913e-02, 1.07424222e-01,
          9.13834348e-02, 7.31427372e-02, 5.57012036e-02, 2.92189792e-02,
          1.66462377e-01, 2.91413158e-01, 2.04719156e-01, 8.09389055e-02,
          1.56085208e-01, 9.51102450e-02, 2.51578897e-01, 8.44772458e-02,
          4.39206474e-02, 9.91512015e-02, 2.91413158e-01, 2.91413158e-01,
          1.83621749e-01, 1.33709520e-01, 5.38186878e-02, 7.33529255e-02,
          5.40737510e-02, 2.18989700e-02, 4.72779199e-02, 2.91413158e-01,
          3.18454176e-01, 2.86576301e-02, 8.14953540e-03, 9.79507808e-03,
          8.07395671e-03, 1.23451687e-02, 3.00683882e-02, 1.60457864e-01,
          3.28895032e-01, 3.28895032e-01, 4.47304882e-02, 3.74406949e-03,
          7.56965810e-03, 6.32530171e-03, 1.89722166e-03, 4.48676869e-02,
          2.84717053e-01, 3.28895032e-01, 3.28895032e-01, 7.30941519e-02,
          7.07513914e-02, 5.41208908e-02, 3.19166668e-02, 4.01195921e-02,
          1.31535651e-02, 1.94635633e-02, 3.28895032e-01, 3.28895032e-01,
          4.54717614e-02, 1.06285485e-02, 3.13382745e-02, 1.54720852e-02,
          1.66724231e-02, 2.07282212e-02, 6.69701248e-02, 3.28895032e-01,
          2.98124075e-01, 6.28801137e-02, 2.06283592e-02, 1.54801263e-02,
          2.87626293e-02, 1.12996763e-02, 1.21409029e-01, 2.97525048e-01,
          2.98124075e-01, 2.98124075e-01, 7.24399909e-02, 7.08476007e-02,
          2.53866017e-02, 1.04526266e-01, 3.97436209e-02, 2.10304484e-01,
          2.15486422e-01, 2.98124075e-01, 2.98124075e-01, 9.26551893e-02,
          4.28550690e-02, 9.56110936e-03, 1.80263799e-02, 4.96039027e-03,
          6.61785752e-02, 1.05549939e-01, 2.98124075e-01, 2.98124075e-01,
          1.87132701e-01, 1.50665760e-01, 2.21372750e-02, 1.15063146e-01,
          9.81819350e-03, 1.17299974e-01, 8.22956115e-02, 1.83033273e-01,
          2.73352653e-01, 7.19655007e-02, 1.03618972e-01, 3.62358242e-02,
          1.12762384e-01, 1.51154816e-01, 2.13237941e-01, 2.70913094e-01,
          2.75389910e-01, 2.75389910e-01, 6.14695512e-02, 8.37716684e-02,
          3.88162434e-02, 7.27451593e-02, 1.49036452e-01, 2.09769756e-01,
          1.77708983e-01, 2.75389910e-01, 2.75389910e-01, 2.50949204e-01,
          1.36674583e-01, 1.45794563e-02, 1.15012631e-01, 1.35908416e-02,
          7.15203509e-02, 5.50628528e-02, 2.39692211e-01, 2.75389910e-01,
          1.13306880e-01, 2.59635784e-02, 9.52003896e-03, 2.48650108e-02,
          3.07071619e-02, 6.16200902e-02, 2.45028902e-02, 2.75389910e-01,
          2.88270116e-01, 4.69065122e-02, 5.04137203e-02, 2.48445943e-02,
          4.47298028e-02, 6.46741390e-02, 7.56925941e-02, 1.58668995e-01,
          2.88270116e-01, 2.88270116e-01, 9.40205529e-02, 1.33405536e-01,
          7.47444406e-02, 1.43356472e-01, 1.33204490e-01, 1.07984535e-01,
          2.88270116e-01, 2.88270116e-01, 2.88270116e-01, 5.77576421e-02,
          4.15332653e-02, 2.37990692e-02, 2.96801217e-02, 4.58338670e-02,
          6.40863702e-02, 4.45137694e-02, 2.88270116e-01, 2.88270116e-01,
          8.63238871e-02, 8.32634196e-02, 1.17074549e-01, 2.22834811e-01,
          1.14353530e-01, 6.17325976e-02, 1.23548590e-01, 2.88270116e-01,
          2.14836493e-01, 8.83580744e-02, 1.16969019e-01, 1.17076345e-01,
          1.78160697e-01, 1.75035343e-01, 1.32126287e-01, 1.60536692e-01,
          1.99366391e-01, 1.89082012e-01, 9.56787765e-02, 1.11506306e-01,
          1.79034412e-01, 1.74607381e-01, 2.18888924e-01, 1.46476790e-01,
          1.80211112e-01, 1.09738797e-01, 1.92476541e-01, 9.04118568e-02,
          9.59611759e-02, 2.00922906e-01, 2.18888924e-01, 1.45618051e-01,
          7.20048174e-02, 1.65631697e-01, 1.76660985e-01, 2.18888924e-01,
          7.79899284e-02, 1.16093047e-01, 2.18888924e-01, 2.18888924e-01,
          2.18888924e-01, 1.36730939e-01, 2.18375802e-01, 1.78890690e-01,
          1.20459847e-01, 8.60620216e-02, 1.52766109e-01, 1.99716449e-01,
          2.66958892e-01, 1.33271083e-01, 1.75593540e-01, 1.39251232e-01,
          1.35054365e-01, 1.41930938e-01, 2.07124591e-01, 1.93414524e-01,
          8.49516764e-02, 1.78853795e-01, 3.41847353e-02, 4.38364074e-02,
          7.09559619e-02, 1.15562700e-01, 1.12482332e-01, 2.27896675e-01,
          2.62512565e-01, 1.54795662e-01, 2.66958892e-01, 7.68926218e-02,
          2.17480570e-01, 1.82158962e-01, 8.45286176e-02, 1.98354378e-01,
          2.66958892e-01, 2.66958892e-01, 6.02165125e-02, 1.64305776e-01,
          1.49032706e-02, 1.72049046e-01, 1.56749651e-01, 6.63117170e-02,
          2.60078609e-01, 2.62830228e-01, 2.50519037e-01, 2.00059321e-02,
          5.81896789e-02, 2.21989397e-02, 2.97244713e-02, 5.88634349e-02,
          2.32434317e-01, 2.62830228e-01, 2.62830228e-01, 2.62830228e-01,
          1.04048237e-01, 1.25950709e-01, 8.61378610e-02, 3.54892686e-02,
          6.13026880e-02, 2.62830228e-01, 1.69626474e-01, 2.62830228e-01,
          2.62830228e-01, 1.26017313e-02, 2.20773201e-02, 1.75303500e-02,
          6.31442294e-02, 6.98434263e-02, 4.08428833e-02, 2.37126186e-01,
          2.07821414e-01, 1.54988140e-01, 9.91127789e-02, 1.59368306e-01,
          1.74212664e-01, 9.05605406e-02, 8.86839628e-02, 1.90517306e-01,
          2.91333169e-01, 1.35935307e-01, 1.85162529e-01, 1.89453751e-01,
          1.48506537e-01, 1.01413228e-01, 3.12875919e-02, 5.00068553e-02,
          2.91333169e-01, 2.91333169e-01, 1.07882455e-01, 4.31962535e-02,
          7.36466497e-02, 4.34651859e-02, 2.86708698e-02, 1.89778823e-02,
          2.57259402e-02, 2.91333169e-01, 2.91333169e-01, 4.89266701e-02,
          8.54557380e-02, 1.46202907e-01, 1.84514463e-01, 1.56276479e-01,
          6.60641193e-02, 1.10567719e-01, 2.91333169e-01, 2.91333169e-01,
          2.30251461e-01, 4.88026068e-02, 4.79855165e-02, 6.24180995e-02,
          2.64746957e-02, 2.12355480e-02, 4.55527417e-02, 2.91333169e-01,
          2.97087520e-01, 2.24149451e-01, 1.11297898e-01, 5.06420666e-03,
          7.62367947e-03, 5.90400631e-03, 1.45825623e-02, 2.46845242e-02,
          1.99752182e-01, 2.97087520e-01, 2.97087520e-01, 2.97087520e-01,
          8.59664660e-03, 2.49678884e-02, 7.65709626e-03, 1.13760475e-02,
          2.82528996e-02, 1.30759597e-01, 2.97087520e-01, 2.97087520e-01,
          1.33577973e-01, 2.22916645e-03, 1.00886514e-02, 4.84302547e-03,
          2.20883675e-02, 3.46010067e-02, 1.96429625e-01, 2.97087520e-01,
          2.97087520e-01, 2.97087520e-01, 1.02517242e-03, 8.91508255e-03,
          4.82469564e-03, 1.72204226e-02, 3.00781056e-02, 1.44502431e-01,
          2.99950331e-01, 2.99950331e-01, 1.46819353e-01, 3.98950884e-03,
          1.34478575e-02, 6.85969600e-03, 1.74268708e-02, 3.01401336e-02,
          2.12412283e-01, 2.99950331e-01, 1.75066382e-01, 2.21929029e-02,
          1.60564221e-02, 2.42741555e-02, 5.17135337e-02, 1.03744738e-01,
          2.08800621e-02, 2.99950331e-01, 2.99950331e-01, 2.99950331e-01,
          1.69482723e-01, 1.87720847e-03, 7.28766248e-03, 5.09029673e-03,
          1.89893506e-02, 3.32586765e-02, 1.83907017e-01, 2.99950331e-01,
          2.99950331e-01, 4.31601554e-02, 1.51258046e-02, 1.59300454e-02,
          3.65003981e-02, 6.94457069e-02, 2.61387285e-02, 2.99950331e-01,
          2.69017875e-01, 8.20953920e-02, 6.54105917e-02, 6.39542043e-02,
          7.91173279e-02, 1.04198501e-01, 1.08848892e-01, 2.03276426e-02,
          2.69017875e-01, 2.69017875e-01, 7.83870891e-02, 1.29870445e-01,
          1.55510247e-01, 2.69017875e-01, 2.17320338e-01, 1.02252200e-01,
          7.71625042e-02, 2.69017875e-01, 2.69017875e-01, 8.82518366e-02,
          4.77628484e-02, 5.66629022e-02, 9.13010389e-02, 8.90122727e-02,
          7.44453520e-02, 1.44406911e-02, 2.69017875e-01, 2.69017875e-01,
          6.55381083e-02, 9.71103311e-02, 1.37492836e-01, 2.69017875e-01,
          1.89418316e-01, 1.04906678e-01, 5.90107962e-02, 2.69017875e-01,
          1.48497850e-01, 5.76636344e-02, 7.26308525e-02, 1.71377122e-01,
          2.33831033e-01, 2.33831033e-01, 1.83280274e-01, 1.53245583e-01,
          1.63081273e-01, 2.12585837e-01, 6.02522269e-02, 4.68610525e-02,
          1.22357309e-01, 1.93364933e-01, 1.84684634e-01, 2.22817093e-01,
          1.97660789e-01, 2.33831033e-01, 1.51159793e-01, 7.23911747e-02,
          6.69437423e-02, 1.28703520e-01, 2.33831033e-01, 1.84838623e-01,
          2.33831033e-01, 1.42937809e-01, 1.34142905e-01, 2.20327750e-01,
          6.94467872e-02, 4.60000560e-02, 4.66558002e-02, 1.42732069e-01,
          1.28694251e-01, 2.33831033e-01, 1.69421837e-01, 2.33831033e-01,
          1.17055960e-01, 1.42161280e-01, 1.73476562e-01, 1.50248975e-01,
          2.88151056e-01, 4.54422832e-02, 2.88151056e-01, 1.89659819e-01,
          7.00618476e-02, 9.10513252e-02, 2.30531737e-01, 2.10689858e-01,
          5.18735163e-02, 1.41187370e-01, 1.02890311e-02, 2.88151056e-01,
          2.88151056e-01, 5.10621034e-02, 1.55382529e-01, 6.38705194e-02,
          7.51470625e-02, 1.34811386e-01, 2.88151056e-01, 2.22472679e-02,
          2.01765656e-01, 1.27571896e-01, 1.18653342e-01, 1.07347414e-01,
          1.14947995e-02, 1.37900356e-02, 2.22575236e-02, 4.17815074e-02,
          8.88219383e-03, 2.88151056e-01, 2.88151056e-01, 1.32087588e-01,
          4.76062894e-02, 1.08012751e-01, 9.27530900e-02, 1.96928214e-02,
          3.50519158e-02, 1.91254783e-02, 2.90643960e-01, 2.45250329e-01,
          2.69567594e-02, 2.14188188e-01, 7.45351389e-02, 2.50561219e-02,
          1.15403630e-01, 1.39353260e-01, 1.46622121e-01, 1.45636976e-01,
          8.74372572e-02, 1.78120568e-01, 8.20380822e-02, 1.38536496e-02,
          1.15532791e-02, 3.30289416e-02, 4.19439822e-02, 2.33849287e-02,
          2.90643960e-01, 2.90643960e-01, 1.24628186e-01, 2.26423189e-01,
          1.39332414e-01, 4.46576178e-02, 2.30237305e-01, 2.90643960e-01,
          2.19282076e-01, 2.90643960e-01, 2.90643960e-01, 1.95519179e-01,
          2.94419855e-01, 7.27508366e-02, 1.55996801e-02, 1.09210506e-01,
          1.27009302e-01, 1.10454530e-01, 6.33067042e-02, 6.86523244e-02,
          2.94419855e-01, 2.94419855e-01, 2.32456952e-01, 2.21073218e-02,
          3.50769460e-02, 4.89494056e-02, 1.84667688e-02, 1.78698730e-02,
          3.34438384e-02, 2.94419855e-01, 2.94419855e-01, 1.24450423e-01,
          3.58674787e-02, 1.53367266e-01, 2.94419855e-01, 1.42604083e-01,
          1.00812875e-01, 7.27303103e-02, 2.94419855e-01, 2.94419855e-01,
          1.44802123e-01, 1.50747029e-02, 1.97618306e-02, 2.92566437e-02,
          2.77948529e-02, 2.64285766e-02, 4.96747717e-02, 2.94419855e-01,
          3.18532825e-01, 3.18532825e-01, 7.14113116e-02, 2.69616838e-03,
          9.97042097e-03, 5.94128761e-03, 1.98235568e-02, 3.45861986e-02,
          2.18990818e-01, 3.18532825e-01, 3.18532825e-01, 2.07338944e-01,
          0., 1.24468124e-02, 3.13914148e-03, 1.13177504e-02,
          2.76758913e-02, 1.50743395e-01, 3.18532825e-01, 2.32643023e-01,
          2.20396332e-02, 1.47576230e-02, 2.58806664e-02, 2.02334356e-02,
          1.41417338e-02, 5.59112765e-02, 3.10589015e-01, 3.18532825e-01,
          1.76526338e-01, 4.08365056e-02, 1.16297482e-02, 2.86751948e-02,
          5.53647662e-03, 2.64121918e-03, 2.53765639e-02, 2.76248932e-01,
          3.23348016e-01, 3.23348016e-01, 2.57135421e-01, 8.43823655e-04,
          3.31666544e-02, 6.30211039e-03, 1.87091473e-02, 4.12002951e-02,
          2.20976561e-01, 3.23348016e-01, 3.23348016e-01, 6.48344904e-02,
          9.63194109e-03, 3.63779664e-02, 7.42469030e-03, 2.11400520e-02,
          2.12716274e-02, 3.18451136e-01, 3.23348016e-01, 1.03462711e-01,
          3.84932980e-02, 1.03612347e-02, 3.15986015e-02, 2.05451972e-03,
          1.17973145e-02, 1.48987509e-02, 3.23348016e-01, 2.33116671e-01,
          5.29150590e-02, 2.23643314e-02, 1.51331276e-02, 3.59417535e-02,
          4.08675289e-03, 2.80462336e-02, 2.97398511e-02, 2.62323141e-01,
          3.37046832e-01, 5.94786853e-02, 1.17355268e-02, 1.61891561e-02,
          5.22170551e-02, 2.23037433e-02, 1.86482295e-02, 9.10893455e-03,
          2.84414589e-01, 2.77243316e-01, 5.17480075e-02, 3.10874507e-02,
          1.77211300e-01, 3.37046832e-01, 1.42215803e-01, 8.25050324e-02,
          7.09119961e-02, 3.02839071e-01, 5.33793531e-02, 5.09185456e-02,
          1.27109205e-02, 1.87595095e-02, 3.50311138e-02, 1.38324462e-02,
          2.47101896e-02, 2.70106141e-02, 9.14550498e-02, 1.64273947e-01,
          1.39089286e-01, 1.15037523e-01, 3.37046832e-01, 3.37046832e-01,
          1.73667386e-01, 6.57223240e-02, 9.93199572e-02, 3.11566859e-01,
          9.05411169e-02, 4.85895425e-02, 4.19956408e-02, 9.37706605e-02,
          2.45078072e-01, 1.10520817e-01, 1.15557246e-01, 9.76302326e-02,
          9.91761088e-02, 1.37272477e-01, 7.18621612e-02, 1.13719247e-01,
          1.57101959e-01, 2.45078072e-01, 1.26775861e-01, 1.60825461e-01,
          1.27817646e-01, 1.38528764e-01, 1.47912145e-01, 1.04092188e-01,
          6.97999895e-02, 1.56832024e-01, 2.45078072e-01, 2.00431511e-01,
          9.22635645e-02, 1.43460095e-01, 2.41519094e-01, 2.38381758e-01,
          1.43159270e-01, 1.30918175e-01, 2.23055229e-01, 2.45078072e-01,
          2.45078072e-01, 1.98769182e-01, 2.43662372e-01, 2.43360937e-01,
          2.50050068e-01, 2.44401470e-02, 2.73815505e-02, 7.57482946e-02,
          1.53079987e-01, 5.82545288e-02, 1.38282031e-01, 8.34363624e-02,
          2.50050068e-01, 2.50050068e-01, 4.73013110e-02, 4.23105769e-02,
          4.75701913e-02, 1.12960286e-01, 5.31236194e-02, 7.80532360e-02,
          8.04797187e-02, 2.50050068e-01, 2.49810830e-01, 1.40939271e-02,
          3.22666541e-02, 9.90071893e-02, 2.50050068e-01, 1.66731372e-01,
          2.01237574e-01, 1.03101067e-01, 2.50050068e-01, 2.50050068e-01,
          9.68964621e-02, 1.22379869e-01, 2.31226623e-01, 2.50050068e-01,
          2.50050068e-01, 2.03307599e-01, 7.92106241e-02, 2.50050068e-01,
          2.50990272e-01, 4.47876416e-02, 2.33358368e-02, 2.78943311e-02,
          4.73654903e-02, 1.72899701e-02, 2.04937220e-01, 1.84044003e-01,
          2.62244642e-01, 2.62244642e-01, 9.36010629e-02, 2.79396083e-02,
          7.86149874e-02, 1.64013281e-01, 6.49320483e-02, 1.97374150e-01,
          2.36754611e-01, 2.62244642e-01, 2.62244642e-01, 8.61475319e-02,
          1.42477676e-01, 9.75509956e-02, 2.41938055e-01, 1.14865482e-01,
          8.72319490e-02, 8.87514576e-02, 2.62244642e-01, 2.62244642e-01,
          8.01637173e-02, 1.05953023e-01, 3.62658799e-02, 5.26294000e-02,
          8.56756568e-02, 2.16990575e-01, 1.69625208e-01, 2.62244642e-01,
          2.69183964e-01, 8.63657519e-02, 3.29162553e-02, 7.33690783e-02,
          1.98387131e-01, 7.96270818e-02, 8.09971392e-02, 1.26392767e-01,
          2.69183964e-01, 2.69183964e-01, 7.96915144e-02, 2.89403759e-02,
          2.11967640e-02, 2.03170143e-02, 4.22202870e-02, 6.79411888e-02,
          1.59484148e-01, 2.69183964e-01, 2.69183964e-01, 8.59295055e-02,
          4.04155478e-02, 4.46758531e-02, 7.45707899e-02, 8.74855965e-02,
          2.39880443e-01, 2.24724025e-01, 2.69183964e-01, 2.69183964e-01,
          1.60599485e-01, 1.05129719e-01, 8.51846933e-02, 9.49149579e-02,
          7.31986985e-02, 1.79965466e-01, 2.69183964e-01, 2.69183964e-01,
          2.86989540e-01, 8.70673358e-02, 1.60961431e-02, 2.43844390e-02,
          2.71146335e-02, 2.28581131e-02, 1.97877921e-02, 1.25141561e-01,
          3.18086952e-01, 3.18086952e-01, 7.67448768e-02, 4.95427707e-03,
          2.00742781e-02, 3.26281190e-02, 8.68788268e-03, 1.18680776e-03,
          6.67019933e-02, 3.18086952e-01, 3.18086952e-01, 1.39328212e-01,
          7.43240342e-02, 7.98157230e-02, 1.09042160e-01, 8.09430256e-02,
          7.66467899e-02, 2.08306074e-01, 3.18086952e-01, 3.18086952e-01,
          1.43442169e-01, 2.57477574e-02, 1.15751728e-01, 1.39414132e-01,
          6.48717880e-02, 1.96470842e-02, 1.04253516e-01, 3.18086952e-01,
          3.14288586e-01, 5.12659699e-02, 4.78389673e-03, 8.60794913e-03,
          1.27165997e-02, 1.11264242e-02, 1.27895065e-02, 2.55104564e-02,
          3.14288586e-01, 2.58613020e-01, 8.16181004e-02, 3.19178142e-02,
          7.92520214e-03, 1.19403405e-02, 1.98296569e-02, 7.37154856e-02,
          9.13746431e-02, 3.14288586e-01, 3.14288586e-01, 1.00477286e-01,
          2.41599269e-02, 5.99809512e-02, 6.23540580e-02, 3.47767659e-02,
          2.15649828e-02, 7.81045333e-02, 3.14288586e-01, 3.14288586e-01,
          1.52981803e-01, 1.15584739e-01, 1.94288492e-02, 5.78108467e-02,
          5.01403324e-02, 2.11981982e-01, 3.14288586e-01, 3.14288586e-01,
          1.39810666e-01, 9.00055319e-02, 4.05350775e-02, 1.52228270e-02,
          1.98085997e-02, 1.72671117e-02, 5.41310422e-02, 9.17945430e-02,
          2.61438966e-01, 2.27794603e-01, 1.49745718e-01, 1.13545142e-01,
          1.75968677e-01, 2.41513878e-01, 1.02528051e-01, 4.49682251e-02,
          1.10071898e-01, 2.59511769e-01, 2.61438966e-01, 1.49272367e-01,
          1.50617167e-01, 1.11264540e-02, 4.47720401e-02, 4.66794334e-02,
          1.77137554e-01, 2.61438966e-01, 2.61438966e-01, 2.61438966e-01,
          2.61438966e-01, 1.73573777e-01, 1.02694355e-01, 1.50378659e-01,
          8.38651583e-02, 6.80110082e-02, 2.30800360e-01, 2.61438966e-01,
          2.17323869e-01, 1.67849466e-01, 1.40007436e-01, 1.71439633e-01,
          2.30699182e-01, 1.82934478e-01, 9.06892195e-02, 2.19282940e-01,
          2.30699182e-01, 2.30699182e-01, 1.50696546e-01, 1.01959251e-01,
          8.86405334e-02, 2.30699182e-01, 2.30699182e-01, 1.66659892e-01,
          2.30699182e-01, 2.30699182e-01, 1.79081395e-01, 2.04545602e-01,
          1.51430190e-01, 1.02987714e-01, 2.28851080e-01, 8.21340531e-02,
          5.94636984e-02, 1.92779422e-01, 1.61625996e-01, 1.24980576e-01,
          9.35048610e-02, 6.42360300e-02, 3.12173571e-02, 1.41020119e-01,
          1.13775484e-01, 6.12277426e-02, 1.41642824e-01, 1.50781706e-01,
          6.53475001e-02, 9.97333601e-03, 9.86006036e-02, 1.35132238e-01,
          2.52784491e-01, 1.10608071e-01, 1.45680308e-01, 3.55547220e-02,
          7.30363727e-02, 8.98727104e-02, 6.94927201e-02, 1.72604918e-01,
          2.52784491e-01, 2.52784491e-01, 2.52784491e-01, 2.52784491e-01,
          7.02129975e-02, 8.89923051e-02, 8.69571865e-02, 4.91384640e-02,
          1.24333322e-01, 1.71642065e-01, 2.52784491e-01, 1.49544537e-01,
          9.50485095e-02, 4.77120578e-02, 5.12680858e-02, 1.81373641e-01,
          1.99001864e-01, 2.04077706e-01, 2.52784491e-01, 2.52784491e-01,
          2.52784491e-01, 2.43313685e-01, 1.64679393e-01, 5.24609201e-02,
          1.93063423e-01, 7.83633441e-02, 1.66920453e-01, 1.34957582e-01,
          2.18998268e-01, 1.88038960e-01, 1.50448069e-01, 1.53933033e-01,
          2.03025848e-01, 2.02950612e-01, 6.60074651e-02, 1.63287595e-01,
          7.43888393e-02, 8.13428462e-02, 1.59675568e-01, 2.18998268e-01,
          2.03000531e-01, 2.18998268e-01, 2.03571752e-01, 1.27835035e-01,
          9.20256972e-02, 2.05730736e-01, 2.18998268e-01, 2.18998268e-01,
          2.18998268e-01, 2.11273402e-01, 1.17653146e-01, 1.37982517e-01,
          8.02467614e-02, 8.61490965e-02, 1.56659216e-01, 1.40851721e-01,
          2.02554092e-01, 1.54005960e-01, 1.23053193e-01, 1.49535790e-01,
          1.79875851e-01, 9.13387537e-02, 7.48241395e-02, 1.09336242e-01,
          1.68009803e-01, 1.85883150e-01, 2.44663283e-01, 1.60004944e-01,
          2.44663283e-01, 2.17882603e-01, 1.01975769e-01, 9.97174159e-02,
          1.74181715e-01, 2.44663283e-01, 1.85911447e-01, 1.86765507e-01,
          2.04569131e-01, 2.44663283e-01, 1.06363915e-01, 7.51958713e-02,
          7.67975003e-02, 1.23992115e-01, 1.83545873e-01, 1.76292926e-01,
          7.76513740e-02, 5.47936559e-02, 1.52534649e-01, 1.17823265e-01,
          8.59050751e-02, 8.42107385e-02, 1.54113904e-01, 2.44663283e-01,
          2.14698136e-01, 1.94201246e-01, 1.05324239e-01, 2.44663283e-01,
          2.09403500e-01, 8.09048861e-02, 8.66491124e-02, 1.56988740e-01,
          2.47610837e-01, 1.96369424e-01, 1.74686804e-01, 2.33406633e-01,
          2.47610837e-01, 2.47610837e-01, 8.24846104e-02, 4.96971495e-02,
          1.49980232e-01, 2.30327785e-01, 1.06538221e-01, 5.50536588e-02,
          8.14305246e-02, 2.39340216e-01, 1.37013704e-01, 1.37424067e-01,
          7.18618929e-02, 1.52853534e-01, 2.47610837e-01, 1.96888059e-01,
          2.19039872e-01, 1.60378516e-01, 2.16457009e-01, 1.41099006e-01,
          1.29189536e-01, 9.47435573e-02, 1.30700439e-01, 2.30775639e-01,
          8.46677795e-02, 8.49291682e-02, 1.23326696e-01, 1.09778859e-01,
          2.75058210e-01, 1.24491751e-01, 9.57432985e-02, 1.74957305e-01,
          1.97507054e-01, 7.79079124e-02, 3.43770795e-02, 1.06073380e-01,
          2.75058210e-01, 2.75058210e-01, 1.28525466e-01, 1.67395979e-01,
          8.43873844e-02, 1.98986560e-01, 1.22241475e-01, 2.75058210e-01,
          2.75058210e-01, 2.75058210e-01, 2.11093172e-01, 1.21108986e-01,
          1.78183898e-01, 1.34553373e-01, 1.95315018e-01, 7.45654553e-02,
          8.68036151e-02, 1.65867820e-01, 1.75072387e-01, 1.21714830e-01,
          5.20463102e-02, 1.11999542e-01, 8.21374804e-02, 1.85027942e-01,
          9.61835161e-02, 8.44632387e-02, 8.73930976e-02, 1.03744887e-01,
          2.51630872e-01, 7.24494010e-02, 1.23459920e-01, 2.66106650e-02,
          8.57790932e-02, 8.81387740e-02, 1.86838880e-01, 2.51926064e-01,
          2.70832717e-01, 2.70832717e-01, 2.13390723e-01, 1.48093238e-01,
          3.44394296e-02, 7.06778616e-02, 6.53172731e-02, 6.29524142e-02,
          1.76827133e-01, 2.70832717e-01, 5.85925803e-02, 5.35175242e-02,
          1.01008385e-01, 9.04912949e-02, 1.74417779e-01, 6.15029670e-02,
          4.27702405e-02, 5.56830168e-02, 5.02812490e-02, 2.70832717e-01,
          2.70832717e-01, 2.70832717e-01, 2.64678389e-01, 2.70832717e-01,
          1.09237775e-01, 3.63744721e-02, 1.10217184e-01, 1.04241632e-01,
          2.17974678e-01, 1.91046596e-01, 1.15339801e-01, 3.55351046e-02,
          1.11605927e-01, 5.96872941e-02, 5.88906854e-02, 1.73584223e-01,
          1.43843070e-01, 1.06708907e-01, 7.20087513e-02, 3.83901894e-02,
          3.35827507e-02, 8.14145505e-02, 6.63864538e-02, 7.76691884e-02,
